epsilon,x,y,y1,z
0,0,0,NA,0
-0.8503733304247904,-1.9713757345202864,-2.7324722699702352,-2.7324722699702352,-0.80713427731045936
-2.506673423179784,-0.57874198301532288,-6.5744601129003144,-6.5744601129003144,-7.2674604049180768
-2.7473322645158388,1.7404027787506986,-5.2809414730429792,-5.2809414730429792,-7.6778225851803296
-4.7210524931940168,-0.054999725789649288,-9.963005371937904,-9.963005371937904,-10.4014061688033
-4.1588736547795616,0.61979028959238912,-7.6243315772161072,-7.6243315772161072,-7.8606012792616736
-5.2080312485218128,1.5322756541053748,-9.957834363149216,-9.957834363149216,-11.798019710412868
-3.6269200190843024,-0.010647091978248092,-9.7238997610565856,-9.7238997610565856,-12.177988845977194
-3.0138964127116516,2.3635309194336972,-7.4926095945027712,-7.4926095945027712,-12.502722742732784
-2.0855179748871432,1.8403261367596452,-4.631472039779432,-4.631472039779432,-7.8523973349240432
-0.61243179227600456,3.4180655308524796,0.22752328660714728,0.22752328660714728,-3.4471881385124156
0.36571663859991888,5.02745153996786,2.9770615193054716,2.9770615193054716,-2.3184875485406836
0.49655371251385808,4.7729749658386632,4.3095599607707696,4.3095599607707696,0.46655004775582912
-1.7089427329464988,3.9539532443157896,-0.38704234424165264,-0.38704234424165264,-3.2871290890639916
-0.7516874720668112,2.4143009454731252,0.052015510692117408,0.052015510692117408,-2.0140454526918304
1.5981759649257776,0.17977516368443026,2.0931590727287068,2.0931590727287068,0.7203034700792124
0.5017848663977508,0.1293279444113933,2.054107029498688,2.054107029498688,2.9106524095847848
-0.14843097515350434,0.9398084633913736,1.4096671645664718,1.4096671645664718,1.706483584352892
1.0281581983161706,-1.8585716619539688,0.87812366224927056,0.87812366224927056,2.4877884207971532
0.2871571682009052,-2.6108298004717828,-1.1096339798139318,-1.1096339798139318,1.122662404678
-1.8471841110228268,-2.2713392311041696,-5.8370776879575176,-5.8370776879575176,-4.5727783072131272
-1.570042211606301,-0.72256617397280016,-3.4894564253747228,-3.4894564253747228,-2.7549791665776432
-1.1267702476723884,0.14651657921050464,-3.1975593068164896,-3.1975593068164896,-4.3613529871039592
-3.3014068946811292,-0.92173641677075536,-8.6950024572339152,-8.6950024572339152,-9.40458649994944
-2.432432619724386,-0.25023131177869728,-6.8544414204890816,-6.8544414204890816,-8.4686706338613456
-2.0339143576470736,-0.21192218434161496,-7.6351113771250976,-7.6351113771250976,-10.884510762443626
-2.4599586542760912,1.5568046584588424,-5.1305761874960424,-5.1305761874960424,-7.6764420541281664
-3.8717971857782904,-1.3473283084555556,-8.928187657723544,-8.928187657723544,-8.0917884812071728
-3.3115614860315576,0.77377759488397168,-5.5491471985292552,-5.5491471985292552,-5.6358378173213512
-3.213372139110266,2.8511940092609112,-4.5664101034383232,-4.5664101034383232,-6.9828669425474808
-1.7223011837769414,-2.537584606581786,-4.8018175208201904,-4.8018175208201904,-2.3526557642138188
-0.65059438059590288,-0.02901177753332118,-2.480339919059186,-2.480339919059186,-3.615973410626584
0.21392452101735236,0.76464190609016032,0.34845858983127696,0.34845858983127696,-0.87789472150739104
0.83141366304713232,0.36499284425382512,2.6002990603825068,2.6002990603825068,2.9902815282900112
0.82790816186771936,3.7742902819780664,6.0088453306699928,6.0088453306699928,4.7004389146374464
2.961581404993594,2.4765790669881428,6.9531141305925376,6.9531141305925376,4.2681968507156736
2.828045811054118,1.9228964477283764,7.920153046429864,7.920153046429864,7.299869799158928
3.7014868911576432,0.68505600979628712,9.4912381971835728,9.4912381971835728,10.551918597357432
5.9829345706120464,-0.36901213762129416,13.044261614755992,13.044261614755992,14.676172294719832
4.8020908284824632,-1.047477504097231,11.66437459883441,11.66437459883441,15.295783796849742
5.2763539730503064,-2.329432599151754,11.338810165385208,11.338810165385208,15.619061283397438
3.2411925367932584,-1.9482330715427104,8.6492842673466336,8.6492842673466336,13.738533068420814
2.2467993539881864,-1.6651552579548486,5.7261032519957416,5.7261032519957416,9.4563406829473824
0.97712530396083824,0.45958473573910976,3.7174401351611464,3.7174401351611464,4.7912525587919512
0.60908320477109056,0.20946954474564656,4.5038457615088896,4.5038457615088896,7.475320796357128
-0.7567505111449504,3.6304853396621816,4.1148168928440344,4.1148168928440344,4.2974067984846976
-0.86442543533986752,3.4755657404030144,0.08995166148055,0.08995166148055,-3.3045944169636864
-1.321524571904058,4.408395029544468,-0.10132133035145464,-0.10132133035145464,-4.1721860612114944
-0.94958832579887536,5.4300570016392912,0.34955203846037676,0.34955203846037676,-5.5468047739404328
-1.8921321841623372,5.3125320457073168,-1.2007577257956514,-1.2007577257956514,-6.586049151827604
-1.9495392316726064,4.0107919394012592,-2.5902607843441484,-2.5902607843441484,-7.2976310144449728
-1.5879413024198652,4.256568142609192,-1.3963519593538288,-1.3963519593538288,-6.0016735277817144
-0.45532872746999696,1.236512861779639,-1.5616449807290342,-1.5616449807290342,-4.0674017991875336
1.0839356455568416,0.30541890304761616,1.5716285070771452,1.5716285070771452,0.51725736846918312
0.68941274037865896,2.1691638986563828,2.309350809759196,2.309350809759196,-0.01386970922350117
1.6821726182973476,0.5495626130104084,3.4872821154983872,3.4872821154983872,2.7858750748864668
0.70037575864900616,2.290332335377912,3.234203132871424,3.234203132871424,1.6321562453779678
2.2797362030647676,2.2463757599355708,7.386234453552304,7.386234453552304,6.8434328610717168
3.1699097308176944,1.8373033538080912,8.270087412096432,8.270087412096432,7.444400331845336
3.074228613040256,0.25342151762120868,7.2687595455312656,7.2687595455312656,8.008929588550208
3.2613522357876428,2.483571691783926,10.161279891191656,10.161279891191656,10.074497773132138
1.5604050556674624,3.3181260159325852,6.42616329765438,6.42616329765438,4.7543274600749576
2.4618962875379496,1.1143706272449634,7.8202728964341344,7.8202728964341344,9.0451972769249248
4.6237808453029064,-3.2483121682944976,9.1830443493235344,9.1830443493235344,13.990995260483004
1.770337245136072,-1.4205121754464032,4.4572585109798808,4.4572585109798808,7.5046107948572224
1.721651651379825,-0.79007208782506704,3.9134553864520744,3.9134553864520744,5.5687156018821008
1.9782724578321832,-3.7541988244709736,2.6639512225785412,2.6639512225785412,7.0026557661991776
3.1833508233980888,-2.3210590739661204,5.6801940927825224,5.6801940927825224,8.475275149718048
4.665993696328696,0.30736098113781196,10.833695027280386,10.833695027280386,11.874361190196662
4.819205678717812,-0.66823710286477248,11.287031943656374,11.287031943656374,13.938008184174282
4.5527146451722568,1.136061074951547,13.245413461643716,13.245413461643716,15.681306020515598
2.9731972843815528,0.70120522096679352,9.791546552893664,9.791546552893664,12.58489070557403
4.4116096293948192,0.21953527829551088,11.308574356780168,11.308574356780168,13.464626537327432
4.3386063629037376,1.1512234788362246,11.984110362288452,11.984110362288452,13.564172780515092
4.0204360926503416,-6.7036130531856968,6.1579864109752952,6.1579864109752952,14.33052021642845
4.114326609651952,-4.3745559783988904,6.4044519874473024,6.4044519874473024,11.142084723189036
3.233511104111878,-1.9604792966127504,8.2836217521820384,8.2836217521820384,13.040940241059446
3.1867176198136616,-0.40253028295278184,9.5812527414938784,9.5812527414938784,13.392865667789608
2.0068123528490168,-3.2645742542860504,1.8713558020899576,1.8713558020899576,4.6259482799109576
1.1678875401737284,-1.4181330174226758,2.2468022382102384,2.2468022382102384,4.2850289222070336
1.622559698847768,1.4730284234596228,4.8159198119976648,4.8159198119976648,4.17717759111036
1.6468023732918388,3.6635094239143824,7.2466615776079232,7.2466615776079232,5.7044542727605944
1.1099785615018352,1.605028537996187,3.1523996455363452,3.1523996455363452,1.677299361074739
2.353610417870814,0.1607232208962912,4.9188923647322912,4.9188923647322912,4.8894790623785168
1.8088675768921912,-0.044042491288809144,4.118288487449008,4.118288487449008,4.6849055580468464
-0.25887537141694516,1.816034908295274,1.9190114416181832,1.9190114416181832,1.631721263627346
-0.7715909305421776,-1.1537160435180686,-3.25236180782239,-3.25236180782239,-3.2309676892833216
-2.010570034553402,0.15658149915719732,-3.5760799314386152,-3.5760799314386152,-3.3658920425062232
-3.162734819127582,1.950055417831782,-5.0891142034210896,-5.0891142034210896,-6.7778418953346872
-1.315166979079583,4.2433645339614304,-1.0658956108861302,-1.0658956108861302,-5.86650406455524
-1.4815949775655488,2.6315100521254096,-2.8434933013703936,-2.8434933013703936,-6.671061725797804
-0.81892503771937456,0.072681789495447008,-4.0971763826721184,-4.0971763826721184,-6.6655253741486576
-2.773760502449436,1.959414461168658,-5.5595717604240688,-5.5595717604240688,-8.5107442077022528
-2.925700348570734,3.7763824031980872,-3.851494665892516,-3.851494665892516,-7.5161622394406944
-4.3852134700525648,4.235067821433404,-7.168207991699844,-7.168207991699844,-11.918590775444664
-2.4771905540700356,4.381987975472908,-2.9477298465771256,-2.9477298465771256,-7.5140605482235424
-0.88653735944502672,-0.090408914508909984,-4.1046519533253376,-4.1046519533253376,-6.3006158159972568
-0.54356336189515808,2.1250349834008116,-0.86768943101132432,-0.86768943101132432,-3.8358046133335504
-0.73598467781897648,-1.5979108529296284,-4.3636418990230096,-4.3636418990230096,-4.8584481630136224
-0.812693468474664,1.1961853268874414,-1.6117619721026072,-1.6117619721026072,-3.3924149975870484
-1.6890147722847532,-0.7371313785925648,-5.0914941622260928,-5.0914941622260928,-5.6992617119938328
-0.03582639748715244,0.51277446679858096,-1.3511037761870932,-1.3511037761870932,-3.3997164575977532
-0.42095647953756312,0.61867768812385392,-0.55089941857365832,-0.55089941857365832,-1.1879024102579714
-2.3192633054144212,0.54712741140321608,-5.5544696462984928,-5.5544696462984928,-7.291103798872968
-1.6215658694843758,-0.279227333652523,-4.40896069607118,-4.40896069607118,-5.155948652694824
-1.9005713406102128,-1.0885336425191408,-5.3521865387489104,-5.3521865387489104,-5.2704299324986824
-0.77229933843639584,0.65179676064101456,-1.2481597418456034,-1.2481597418456034,-1.9294159477799368
-2.2911008556987092,1.89370830023085,-1.8974816071685332,-1.8974816071685332,-2.0533239532859228
-3.3171469387349416,2.7386934432229636,-5.3464950691398744,-5.3464950691398744,-8.1667364256443104
-3.088483045713534,5.5310592031886736,-3.5568596180094052,-3.5568596180094052,-9.233341949374752
-4.0257365009619528,3.7049305201903688,-7.2964738764087584,-7.2964738764087584,-12.098870531179164
-2.9404126556896048,-0.082288366040860864,-8.4149067409179136,-8.4149067409179136,-10.825555621395328
-3.5282616500648104,-2.9910300888803428,-11.387642606656136,-11.387642606656136,-11.232216779862138
-2.44266157517677,-2.7640025198543156,-8.7893724127550144,-8.7893724127550144,-8.5474178953750144
-3.6837080653426064,-5.782661223015068,-14.827281464942122,-14.827281464942122,-13.61315496467643
-4.0616277060421096,-5.170396746312136,-14.533322740798222,-14.533322740798222,-13.187794950044018
-5.7225716193732448,-2.1477137958528492,-16.141296271513962,-16.141296271513962,-17.615878610502162
-4.66974650128856,-1.3534440985633544,-15.136465232295866,-15.136465232295866,-18.903271314169576
-0.10332457069501456,-1.6912593204702074,-4.668783489871612,-4.668783489871612,-6.5940288576478848
-0.33245004878607332,-4.1663374783141312,-3.5752379103358624,-3.5752379103358624,-0.23606950562838148
-0.9614716992453256,-4.6894273981991536,-6.02875411863436,-6.02875411863436,-3.1004237414793388
-1.9875429221418184,-6.1639882322560952,-7.9467425730900272,-7.9467425730900272,-2.6724169535122744
-1.2066468611425948,-4.631373912769568,-7.094258214417192,-7.094258214417192,-4.8281618373948432
-1.1508726241580164,1.3913615155317438,-1.8395039440928552,-1.8395039440928552,-3.4643049131672936
-1.2215900222663048,0.99248372580238192,-1.3392399657420174,-1.3392399657420174,-1.7240254756549982
-1.2663699765364806,4.4330455918277528,-0.029975613447464688,-0.029975613447464688,-4.1767796615635976
-0.41924730105473832,4.2315027676358576,0.93179980251744016,0.93179980251744016,-3.6451599443094296
0.58206011088930552,2.5783599587318096,2.5013507686539844,2.5013507686539844,-0.028958622568356572
2.0062524339036748,4.3929139973450632,7.679889401697472,7.679889401697472,4.75790293957
2.5487218293739992,1.1343192670034526,7.0319647937603712,7.0319647937603712,7.2650070282675664
2.6130882084715488,-1.546803191552923,4.9766316634388552,4.9766316634388552,7.0472916972639968
4.7859363319728888,1.3731566588614154,12.574132627913582,12.574132627913582,13.516657603589258
5.996557142277048,0.18644536305421312,15.325144489230018,15.325144489230018,18.37750664932462
7.0668127014223744,3.316176892113404,20.4406510030562,20.4406510030562,21.773411265097548
5.0134569402737544,4.1910009618027136,17.589373182256666,17.589373182256666,18.865331041261752
3.9127261856923056,3.4947942302967376,14.2352817036953,14.2352817036953,15.402919690560884
4.47959648240912,3.2038953218894016,15.01477525259123,15.01477525259123,16.26451455753012
2.402329004782668,2.593558239159136,9.1951068585546528,9.1951068585546528,9.6952183488052656
2.1508873631937104,-2.6791292525172524,5.1248120826310696,5.1248120826310696,9.9665433176505968
0.7236322258866064,-0.649980709815534,2.01357469012052,2.01357469012052,3.5548559931911284
0.040478737630826104,-2.1733975899973372,-1.0143698333530074,-1.0143698333530074,1.1503992430283392
2.3828709945463872,-0.99481301889008848,4.1625587833533544,4.1625587833533544,5.0515951059490664
1.2668267062053388,-1.6758354674955038,1.9905072236708476,1.9905072236708476,3.9611142361742736
1.7709142599519702,0.58794947653467224,5.8826468292093168,5.8826468292093168,7.3415409237126832
1.151190691556994,-2.058364290027792,1.5644057144795316,1.5644057144795316,3.9139764808867632
0.7348540161230424,1.8854337565432648,2.604052620441898,2.604052620441898,0.9102465738228136
1.9146383209076004,2.5258839440607444,5.4355937451570184,5.4355937451570184,3.2530849324077192
3.1368656356703228,3.7573175277447456,8.542835839153376,8.542835839153376,5.175964115348988
4.4792316355186328,1.420056981496314,11.676992423956556,11.676992423956556,12.265436104631376
3.529170092969592,-1.4285568766952644,8.24120955830916,8.24120955830916,11.566914245722034
3.1086712834663408,2.7966689737718352,10.817898779935918,10.817898779935918,11.223451532281402
3.3020013667222292,5.971294441337804,13.735868721315662,13.735868721315662,11.910793047180156
2.3660886220094688,6.6742053260843256,11.684097806985312,11.684097806985312,8.6247103808252
2.7512552476571504,2.1351771448644072,9.0026330561740336,9.0026330561740336,9.2999898997371552
0.64854929591437616,2.6538826524705444,3.1500995827809336,3.1500995827809336,1.0222765950272982
1.8462797901717464,2.2853941402183692,5.7133575124226192,5.7133575124226192,4.306064234174192
1.3804497671272614,0.54324484904905312,4.3863278627980872,4.3863278627980872,5.1968889177680712
1.2772829090550842,-0.70871827291057168,1.6520121850141792,1.6520121850141792,1.8125359612840476
2.4408863834701196,-2.6419067613708336,3.7261484157619384,3.7261484157619384,6.5333842066398872
2.472633566454446,-2.2086319274739384,5.5501164907785192,5.5501164907785192,9.4679137398590544
2.5614705285272952,-3.934994153717432,4.3033267743245888,4.3033267743245888,9.386203722170736
2.402253476884586,-3.0088315198354948,3.7725794492149272,3.7725794492149272,7.2538992244139248
4.5843706483833808,-3.277629723830426,8.0619165546138896,8.0619165546138896,11.871536398206656
2.0253997926618784,0.31925644522243336,6.106254557821696,6.106254557821696,7.6828248624859856
1.7350457524266028,-1.4677500220532972,2.8907488444489016,2.8907488444489016,4.513031217124544
1.455328616349621,-5.427260366097788,-0.47991269304498528,-0.47991269304498528,4.2704079303574696
1.8140884814588308,-2.7749429561377604,2.3808705820101416,2.3808705820101416,5.2959786353092616
2.9664589597410212,-1.8296895872047712,5.946364214690664,5.946364214690664,8.7043448907064448
3.1609783449780648,-3.3428606617778912,5.7495024655285128,5.7495024655285128,10.191339233767734
3.0154666285903172,-0.39443487247248152,9.5399763860811024,9.5399763860811024,13.640671823690294
1.523030707649734,-1.4938188377660038,5.7836861547542576,5.7836861547542576,10.762039150858054
3.0023689591505464,0.080179568165322784,7.3853148647009072,7.3853148647009072,8.6456224588527376
2.1821567262883212,0.78738056115820464,6.8289690282896512,6.8289690282896512,8.1125537622653536
0.79191675414251088,2.751372362111906,3.875348633952644,3.875348633952644,2.039805216452408
1.6971260360640894,2.501616713419128,6.0853178159183712,6.0853178159183712,5.023958489579872
1.9700306680613892,4.5972005539904096,9.177376892485816,9.177376892485816,7.5188916178632384
0.2896410866649708,3.9594417397675136,4.853919039611716,4.853919039611716,3.1893932962422204
-0.3163372420376888,-0.68952626135522352,-0.1793800209066227,-0.1793800209066227,1.3082038342949676
1.0882048672314198,1.0803012559582256,3.4263589449284528,3.4263589449284528,3.0558562714567272
1.8834772028131552,-0.32705803324245188,3.5500794908540208,3.5500794908540208,3.8237916259454096
1.1642203435118432,-1.5153878552568786,1.7848446333619082,1.7848446333619082,3.5143303625854476
0.90490026844654576,-0.60729717782549672,2.5470356586554264,2.5470356586554264,4.1952165471560064
-1.5838095534770832,-1.4101990856205324,-3.2452925075409248,-3.2452925075409248,-1.2076672796968842
-2.6800917957305604,0.40182440968341928,-5.4014569977273848,-5.4014569977273848,-6.045467018518776
-2.6668051540069552,1.5021165966549776,-5.9636902079784592,-5.9636902079784592,-8.8469450029254736
-2.5768374412162464,1.9950693974341452,-5.2672726065977696,-5.2672726065977696,-8.3734744269142656
-2.436304077324922,-4.2830204748375032,-9.4817761694437072,-9.4817761694437072,-7.6664134719813152
-1.6726351279319212,1.6213825612421408,-3.9216491825302592,-3.9216491825302592,-6.9301019510598864
-1.5258703536512428,-0.076440384577862176,-4.0551887139146912,-4.0551887139146912,-4.9439761436601032
-1.7679018778318206,-2.13836421353856,-5.5094153124316376,-5.5094153124316376,-4.2754805488917944
-0.29999899460237488,1.841573570554276,-0.11736357006212982,-0.11736357006212982,-2.3970895067509236
2.2867188551878304,3.2797957627278628,6.5151770631599072,6.5151770631599072,3.5372227718523596
2.7589846910101328,6.1110025569924168,10.75516167919216,10.75516167919216,6.8258501408754296
3.5085259973549264,1.923953768535204,10.449670224353642,10.449670224353642,10.996357801194626
1.1966667359335976,-0.5888871952019972,3.927283417599096,3.927283417599096,6.3445641561339928
0.3436742806777654,2.3660655102666744,3.1745151861801812,3.1745151861801812,2.1125835456048196
0.059963594852419008,2.2182040455701376,1.9659454251137432,1.9659454251137432,0.484657592167442
-0.21506652857318588,1.7266265185248658,2.1916292972457528,2.1916292972457528,2.223451873850578
2.012156959555974,3.5138363162349224,6.9485084626731592,6.9485084626731592,4.6019485318819872
0.66790915968267848,4.8283758938501488,6.2953095919549848,6.2953095919549848,4.0122370237693888
-0.80075377257038368,1.0063491109785034,0.65235703953972976,0.65235703953972976,1.396697957752472
-0.70219507186533536,0.794113367598708,0.24820893489157904,0.24820893489157904,0.70963796211576704
-1.9672917227807372,1.1984434266753796,-1.681065077242079,-1.681065077242079,-1.2252118489357526
-4.45249562519016,3.3055393027319292,-6.1806272048780304,-6.1806272048780304,-8.4145721134736352
-4.7163008806413384,0.003504846248891802,-12.602253333157528,-12.602253333157528,-15.777162174405718
-3.6744718930268928,-0.03021515015709396,-10.610754933091248,-10.610754933091248,-13.82724335489307
-3.2214280199826416,-1.5586021912158278,-10.685092140988938,-10.685092140988938,-12.58942495518885
-2.8155377404714996,-2.833879343092342,-9.9687937303380352,-9.9687937303380352,-10.055692965094556
-3.6153624288730216,-2.9571308885634496,-11.906237124900148,-11.906237124900148,-12.146053059209078
-4.4236027613124752,-6.367706963805544,-15.393294948364954,-15.393294948364954,-12.387823928396642
-4.1000451446642096,-5.104943620991044,-15.047187865411436,-15.047187865411436,-14.236870010007886
-1.2201897390806798,-4.6807839923168984,-7.9705094286978688,-7.9705094286978688,-6.4794633907590296
-1.8477604157076368,-2.5385406006661744,-7.0153329592662192,-7.0153329592662192,-6.527334186117904
-0.68949551779644688,-3.8770066648251256,-5.2298257787925208,-5.2298257787925208,-3.26515052475446
-0.44774773206380984,-8.6772270377242608,-8.748158905731584,-8.748158905731584,-3.5849817907491544
-0.95816916063697536,-3.940081838352372,-6.03143358436618,-6.03143358436618,-4.2364060899298504
-1.6930330013183346,-0.65189779041007464,-3.6755608447687392,-3.6755608447687392,-2.9872090012856968
0.3170814040646772,0.0058322710449630336,1.0647710390956616,1.0647710390956616,1.486630863494524
0.13549317491103436,-1.3405033124200068,0.5933272643104344,0.5933272643104344,2.9264231474288104
-0.081605249931342512,-1.8748043528258256,-0.76407186688730448,-0.76407186688730448,1.4472732953268146
-1.4937894386875634,-1.8498464300599516,-2.4929554418353536,-2.4929554418353536,0.77643763879434672
-0.99567934803290576,-1.6080612149897906,-2.2913131497423336,-2.2913131497423336,-0.17917578093416986
-0.23222876448151884,0.64022454912721968,0.5817784803294556,0.5817784803294556,0.6676776659311192
-1.205756534849931,-2.8143055059787092,-4.076974694077968,-4.076974694077968,-1.5209780594880092
-0.52271274678346448,-4.908001831365744,-4.9806272648593144,-4.9806272648593144,-1.5538262891030828
-0.36061109926907472,-3.8489213678741752,-3.7090035446529256,-3.7090035446529256,-0.92340283895643856
-2.0296280769712644,-5.3608388729585296,-9.3931898437786896,-9.3931898437786896,-6.6858652241770552
-3.6047635911493088,-5.8040412836884624,-12.801691048899484,-12.801691048899484,-9.6877929899676544
-4.6313403256032328,-5.626970674056536,-14.332533306506726,-14.332533306506726,-10.961929950722182
-4.9329929248755552,-3.0644914148474756,-15.304618161093938,-15.304618161093938,-16.146513350165552
-5.2308681959333648,-2.0739661368629088,-15.289302904915352,-15.289302904915352,-17.005920212669612
-4.0816567303762328,-4.2044557064433136,-14.81803709035241,-14.81803709035241,-15.166077160287384
-3.95509156811966,-3.0349402630907424,-13.925920092539502,-13.925920092539502,-15.389246654203572
-3.3428933061590336,-1.9538447945319216,-12.041721788601474,-12.041721788601474,-14.466889773086998
-3.5874733924285792,-3.1934447526867196,-12.117219221343688,-12.117219221343688,-12.269324528800138
-2.0981891865418156,1.381437989641278,-5.5535140586276984,-5.5535140586276984,-8.9828067286336832
-1.8276710935623036,0.80978317027656528,-4.889696914285036,-4.889696914285036,-7.3387263968603136
-1.9512129305093108,2.3092621705920612,-4.9558588530310568,-4.9558588530310568,-9.473185100931584
-0.946743584650708,0.035659646170193904,-4.033296477310968,-4.033296477310968,-6.2265952545758104
-1.9019121437735804,-0.59564019831771464,-5.7623377064758528,-5.7623377064758528,-6.8273908279279712
-2.4493458978458488,0.1311551494520728,-7.4741048781206944,-7.4741048781206944,-10.2462506847278
-2.8570681496682884,3.3311952740083444,-7.0667129872130976,-7.0667129872130976,-13.416082586102136
-3.11645524552099,1.3516557225762736,-8.4799164178450064,-8.4799164178450064,-12.754405928512442
-2.3217235287434804,-1.5284875932492996,-7.9313439364873904,-7.9313439364873904,-8.9265094256138688
-0.5677931708448396,0.4414335864942032,-2.4994992759279344,-2.4994992759279344,-4.5255625899074944
-1.2446209790777778,0.0041478990571713336,-3.5787366242733504,-3.5787366242733504,-4.6744531389769024
-1.0784767049686836,0.40915741221825112,-3.0125794613562448,-3.0125794613562448,-4.4819416311024992
-1.5232070553539978,1.1567465589933918,-1.5035699563385554,-1.5035699563385554,-1.6958456404592028
-1.3252291526911658,0.43804636741664264,-3.0208926989032852,-3.0208926989032852,-4.0483966435492024
-2.3634429064685424,5.0620524236653016,-2.0844812045375244,-2.0844812045375244,-7.035155231635916
-1.2981241932834668,3.8072005906902096,-0.07479398794793224,-0.07479398794793224,-3.264140475364246
-3.177960984593846,-0.24143307852209484,-6.7066749551204448,-6.7066749551204448,-6.6952783232700544
-0.18062587702637556,-1.4635139857830176,-3.3286046105803732,-3.3286046105803732,-4.1006864884334696
0.37858149655177056,-2.8261388084644004,-1.9943164600490336,-1.9943164600490336,-0.50658770050500664
1.3487300549070722,-1.4861825196220288,1.2819271867067974,1.2819271867067974,2.095668043032494
1.7588541545106408,-0.90239856052016032,4.2551672017475072,4.2551672017475072,6.3462239352539728
2.0223486927549792,-4.15748660752042,2.6629958699545152,2.6629958699545152,7.5175242656797024
2.7091977076329324,-2.1502674528203248,6.7751133361683448,6.7751133361683448,11.357232436301314
1.8624489694919468,-1.7742890339229194,5.4445651674772424,5.4445651674772424,9.8256659468549696
-0.12175302317143632,-3.5979038198306024,0.25644156667146812,0.25644156667146812,6.1532449094317128
-1.6205733646905296,-6.3111160730340824,-7.7769404029104016,-7.7769404029104016,-2.8460599668886208
-3.7201422508232784,-1.0713402037341266,-9.5330782977888352,-9.5330782977888352,-10.018861788329924
-1.9304737969971888,-3.5555538671790404,-7.6150253342934272,-7.6150253342934272,-6.0357722738239176
-2.0273207820561896,-2.0191011758476804,-6.3316453697877752,-6.3316453697877752,-5.5799974116916504
-2.4654491910990812,-1.299915512315356,-8.592972595706192,-8.592972595706192,-10.305173540741186
0.80510207366861904,1.8347385957142512,1.3776322639614698,1.3776322639614698,-1.6070475129856752
0.31000160191155884,2.637706891877584,1.8070911423593196,1.8070911423593196,-0.96238125692085424
-0.58039443722306904,0.00070615880313407152,-2.1904951452683444,-2.1904951452683444,-3.2212606542952512
0.15213331014617638,2.4451787557538804,-0.47243266499515288,-0.47243266499515288,-4.9169000839134792
0.22045485675483568,1.1842796053640244,1.2253650219345156,1.2253650219345156,0.23340092231332356
0.36484839759623448,-2.5785078507347216,-0.9586632453819384,-0.9586632453819384,1.220738490145736
2.3361823071113996,-1.4315756402862918,3.9872104322478304,3.9872104322478304,5.4494197107022992
2.4240545579047444,0.3945689198210448,5.4257838905895672,5.4257838905895672,5.4116052856380784
2.1632993902274788,-1.5655616567356214,3.5763496018122016,3.5763496018122016,5.1744429082728776
-1.0130077296242542,-3.0746769849596224,-2.3807209465825164,-2.3807209465825164,1.8765890435229084
0.82559054140511184,-0.70614766341754144,1.9266332019385412,1.9266332019385412,3.2613068161931712
-2.2657527830489208,-4.02010935451256,-7.5010730692076016,-7.5010730692076016,-4.4404765405485216
-4.3730896587117936,-1.8388914642908024,-11.028387235219724,-11.028387235219724,-10.55225795657966
-3.92433191583476,-4.4629654809499432,-14.830929641166026,-14.830929641166026,-15.118747229237618
-2.0237522726392236,-5.1657652602729536,-11.055602605606548,-11.055602605606548,-10.315052775525218
-3.013345611864796,-3.8774622289295208,-11.339271735898558,-11.339271735898558,-10.835658904673244
-0.40094723895130712,-6.0463538726792488,-8.4839024928396,-8.4839024928396,-7.0963796987577128
-0.038405801183567344,-4.1178843675666776,-4.3800687649202216,-4.3800687649202216,-2.506499376123292
0.53044588377911416,-4.6461554439321872,-2.1312421246290548,-2.1312421246290548,1.6458571490819424
0.09359369641229976,-1.9642680240453448,-1.4327976316109524,-1.4327976316109524,-0.1063806199784868
0.4936948305373556,3.1330655020190132,2.0544336663542672,2.0544336663542672,-1.5781205813946962
-0.84589209053839136,-0.4356621735144084,-2.708062202479594,-2.708062202479594,-3.0708469636107924
0.16452686470027122,-3.5923592256887752,-3.6862783131596848,-3.6862783131596848,-2.3130715171867484
0.52909002935624864,0.095662945655255792,1.5701501025844192,1.5701501025844192,1.9386257279734572
0.045955127843438968,-2.2807043294956612,-0.87267797007879984,-0.87267797007879984,1.583790298399014
0.93359553355247248,2.6798052758439816,3.8443844849865792,3.8443844849865792,1.8018699891022428
2.7820907773597364,0.084289799103730128,4.8074937472820472,4.8074937472820472,3.9243712411890272
3.6521766292199056,-0.76538000190758528,7.0362157910596312,7.0362157910596312,7.9161483265408304
2.8637533820425364,-1.52490817295078,6.6810515655469248,6.6810515655469248,9.9219586264349472
4.2462476437728824,-0.40184220526082424,11.19631579803891,11.19631579803891,14.502899616423292
5.4759571685032984,0.39586103645440104,12.952302604871174,12.952302604871174,14.358899318054152
5.4585292261922312,-0.89063177065776208,13.258153000245802,13.258153000245802,16.935195204093784
5.4276008925699208,1.4540295363604598,14.233526514264654,14.233526514264654,15.430806938848776
6.1918362374251232,2.8764346156412,17.66017442098741,17.66017442098741,18.622024443662772
4.238993192915752,-0.71565397151071688,11.736758211480866,11.736758211480866,16.069010994396304
3.5561798389636516,2.0547936717511804,12.450183332112814,12.450183332112814,14.705816478671558
2.7922158837838248,4.6260426045972504,11.538268090177338,11.538268090177338,10.553040505891148
1.2092659176174278,-0.94087899708502976,3.4119984110794732,3.4119984110794732,5.816783482551636
1.187464205836482,-0.59987573506306432,3.5185634011224796,3.5185634011224796,5.562011993166592
1.3429627940812112,-0.30256231953741496,3.145601643901148,3.145601643901148,4.059121178945996
1.0290106062732308,1.0933074418433082,3.8928524795052968,3.8928524795052968,4.0877225836991696
-0.094597256789234368,-1.8539309771607524,-1.1530054510527948,-1.1530054510527948,0.66408007721400784
1.1490077876243094,-0.60420961075234992,2.0630800825188868,2.0630800825188868,2.7344590059176788
0.35655553612608648,-0.78024556247313376,1.3037332303953542,1.3037332303953542,3.064723732248236
0.65333238405130168,0.6215605210487072,1.5867093696708472,1.5867093696708472,0.93441318966603008
-0.22984396844745492,0.1122951651124196,0.46781114024113488,0.46781114024113488,1.2268674697085502
0.032941776655881744,3.8507385351572184,2.2036861663819388,2.2036861663819388,-1.4346190232837146
0.3521355232884512,4.1672224183371952,3.5760340143868948,3.5760340143868948,0.19696335469109428
1.3811556216926594,4.561922084888476,6.7029952387905152,6.7029952387905152,3.8007961068629968
-0.132884006708623,-0.68565713977511768,0.21222772318611628,0.21222772318611628,1.718709169452155
-0.57625688989499944,-0.11514651917800906,-1.7998592512987344,-1.7998592512987344,-2.2744849440404568
2.2117899371847172,0.93779504550824272,4.045172386896984,4.045172386896984,2.2600723311621688
0.14418500258029576,2.7099000655622936,2.6513482757395516,2.6513482757395516,0.94947644797507216
-0.35040522960491748,0.86692365929071744,1.1987598503464118,1.1987598503464118,1.797944670966583
-1.690004134600914,-0.13393639262723234,-3.0522450064409292,-3.0522450064409292,-2.523577154739182
-3.469520372062358,1.7517633778776416,-5.0095124751514312,-5.0095124751514312,-5.707629272994608
-5.4868729195267816,0.5704849404302064,-11.245303230862092,-11.245303230862092,-12.372588033315932
-5.670389710194664,3.7472013620227976,-11.369118658115846,-11.369118658115846,-17.01825993887656
-4.58015811997232,1.9462598494787156,-11.779452460111314,-11.779452460111314,-17.31797845449606
-4.6418788998303392,3.2714470277308064,-9.0525616918659072,-9.0525616918659072,-13.728536125667346
-4.5945483818849848,2.045634748435672,-9.6503030593495712,-9.6503030593495712,-13.17996147758268
-4.3914766023928736,2.9526637927225952,-9.5506841687262848,-9.5506841687262848,-14.747410821750716
-4.7361941241282688,-0.1533705844909261,-12.678368336380962,-12.678368336380962,-15.654292547769
-4.1160091154888176,-0.0092553038057983232,-10.974036145344258,-10.974036145344258,-13.702171104002184
-2.9344864029937984,4.404672281994284,-6.1675548395574552,-6.1675548395574552,-13.073145296118738
0.37650589832258552,-0.20205167782803412,-2.6536817945614168,-2.6536817945614168,-5.7572978690259536
0.24034259420370484,-0.47043419076680112,-1.8188218502236916,-1.8188218502236916,-3.4126776027045916
1.461976226789194,0.1952942359341538,2.48295631945233,2.48295631945233,1.749018831425041
0.024218380740535396,1.3492412347426784,1.959648532148288,1.959648532148288,1.8469984507014876
-0.043488103104361184,1.8606712122630628,1.607371976828372,1.607371976828372,0.51071334147087232
-2.1462911451027316,3.0515988465478456,-3.192755517819482,-3.192755517819482,-6.6703270152552688
-2.6258899133649132,1.6830129250970974,-5.5648712438526536,-5.5648712438526536,-8.4024820486211264
-2.0350370919685924,1.6969827194864288,-4.3454769325649088,-4.3454769325649088,-7.166353760422276
-0.81200483113299792,1.2003241161490236,-1.5854897654587478,-1.5854897654587478,-3.3474560428750352
0.50217726289402488,-0.38382186302317104,-0.6019689606829768,-0.6019689606829768,-1.6325596526192468
0.82911137207590512,-0.076799454777975008,1.2745227122700724,1.2745227122700724,1.0060218625552968
-0.24425232039423848,4.8716822326325872,3.8468458389545168,3.8468458389545168,0.87467296974863008
-3.3974880142653316,2.0110750570577248,-4.675710130792428,-4.675710130792428,-5.5730568186407792
-2.705610835932108,-3.3831201074325392,-8.5137458915238448,-8.5137458915238448,-6.5415899500346664
-0.699657230764976,0.55456629029447456,-3.0152453702977856,-3.0152453702977856,-5.4630257145073304
-0.1407115243740552,3.1654245965111416,1.1523274932067826,1.1523274932067826,-2.1620588596050368
0.06695169391334432,0.69519048966600504,0.811299376850264,0.811299376850264,0.4459096313748316
-1.603108377416365,0.64832062259538328,-2.2284269957514528,-2.2284269957514528,-2.2231181705632496
-3.793986272159428,4.61790402760898,-3.853197888191732,-3.853197888191732,-7.0452792734780784
-3.969399405858944,2.596329117105822,-7.231239215230408,-7.231239215230408,-10.41817329440166
-5.4681249230725992,0.2916541367403862,-12.736962366891686,-12.736962366891686,-14.975156092748752
-7.4132584621892944,2.4970198768328656,-16.734747425497588,-16.734747425497588,-22.388507741865892
-9.4995925191936304,2.624980111055364,-21.67204519063862,-21.67204519063862,-28.282375509473024
-8.2297498331553248,2.0165549796480956,-19.1366832133618,-19.1366832133618,-24.838699229885096
-6.3151846899959168,-0.68992873782692184,-17.93236855251984,-17.93236855251984,-22.199474618307468
-7.3405352854546608,-0.55188254859631024,-19.277234807323272,-19.277234807323272,-23.045575220842752
-6.6796048848805496,0.90758402570806624,-17.622565247356516,-17.622565247356516,-23.247296763514028
-5.7004124066752352,0.3937394106409504,-14.772675547407712,-14.772675547407712,-18.735135397426376
-2.244088792261182,-0.10093650532930232,-8.5427388140587648,-8.5427388140587648,-12.445895285601212
-2.3033689871441436,4.1733328519364944,-4.678504412158924,-4.678504412158924,-11.010270127934302
-1.9998577633022388,2.8752812681606848,-3.8406730202182008,-3.8406730202182008,-7.994552416072952
-1.5844130542934636,5.4227407901433152,0.02238167740838648,0.02238167740838648,-4.9205217218112728
-3.020137411076508,4.365470633557276,-3.3403165396407132,-3.3403165396407132,-7.188564207464324
-1.3819243118383106,-0.65473641931516056,-4.2401120569174272,-4.2401120569174272,-4.734270861185492
-0.54243937218490224,0.10287790277651082,-0.51913210856587208,-0.51913210856587208,-0.1077023269267059
-0.24515666243722424,0.42191069267646576,-1.5867775788475554,-1.5867775788475554,-3.3161078718353608
2.095035943599834,0.10181089007358262,3.8926898299418808,3.8926898299418808,3.4425914375737196
1.5592131525886454,-1.4839389966391348,1.9832234697983676,1.9832234697983676,3.0739291293781464
1.6554318368765686,-2.4949133211216248,1.9224434817704256,1.9224434817704256,4.2763932714701512
1.1991752576611782,-1.367320155526526,1.0500033297920172,1.0500033297920172,1.7526363775514668
1.0146229596410628,0.49358030012572648,2.6288336989909328,2.6288336989909328,2.4880510285111504
0.032357658663265564,2.64731130664214,-0.1405222194859882,-0.1405222194859882,-4.3167267162617176
0.96259571131539808,-0.89321410882637616,0.1591584666965099,0.1591584666965099,-0.26705332599821196
1.1907184538727768,-3.3251543346028324,-0.08786167549013424,-0.08786167549013424,2.4305712431784268
-0.0042677596192368664,-6.6711712239486776,-4.4318931527595352,-4.4318931527595352,1.1515060496424216
0.32736065741701888,-4.8447645178224824,-3.5121876898020992,-3.5121876898020992,-0.41194991770451272
0.31998259604018688,-2.0082055652900596,-0.6055305870019344,-0.6055305870019344,1.1612819818508466
-1.2997398278226728,-0.6753991930185932,-4.0470151683045648,-4.0470151683045648,-4.4814518914358936
-2.3503181170344848,6.0288816864865176,0.1879237428863556,0.1879237428863556,-3.9668388098880952
0.34025687402675464,6.2338090003773608,6.2422905411915328,6.2422905411915328,2.453353833763516
0.587841314643776,1.5878976875482854,2.0019471139701544,2.0019471139701544,0.44636506733032856
-2.2721033007891476,3.061524672332322,-1.6318797248162364,-1.6318797248162364,-3.3118398565526608
-1.5605523427709112,0.30585683013496668,-3.3912388702761428,-3.3912388702761428,-4.1201583002129128
-0.99897936337841568,-0.25931154943847288,-2.9138414748276336,-2.9138414748276336,-3.4407568987407276
-1.765219897018274,2.0602710929775476,-2.5025035776776544,-2.5025035776776544,-4.5649740007850824
-0.10579365691948306,1.0604861883357792,0.1674611385880046,0.1674611385880046,-1.0442196914886936
-0.088275556226098896,2.183414036838028,0.832534810115948,0.832534810115948,-1.4335003225729484
1.1731799120263948,-0.037185546008105864,3.0694494647160752,3.0694494647160752,3.8483174243915184
-0.81217188666361008,-0.074792547066826896,-0.61710096677093576,-0.61710096677093576,0.50233066038558896
-2.5832194329273984,-2.929979384741728,-8.4925740429138224,-8.4925740429138224,-7.4237401428602576
-1.1863297139109444,-2.0169983804539336,-5.3024198493129696,-5.3024198493129696,-5.2066827001231496
-0.64398504944903304,-2.4405018056265668,-4.03875365511142,-4.03875365511142,-3.1287845028849244
-0.48775019112590432,-4.3722170108516016,-4.3168804105245464,-4.3168804105245464,-1.0999349225198812
-1.138136936630604,-4.668331564959404,-5.7801990042158504,-5.7801990042158504,-2.2816267877313884
-1.4046055229805802,-5.54376411297874,-7.609214277687952,-7.609214277687952,-4.0935713399466336
-0.27280455981876816,-4.2143601237352784,-5.3840083758635232,-5.3840083758635232,-3.9008674464865944
-1.098693128648915,-1.8694167507667396,-4.5682529931894928,-4.5682529931894928,-4.1349946029310472
-0.02835893484832308,2.0366813224198648,0.4488172329401268,0.4488172329401268,-2.1006696480528976
0.61780531300333176,4.5185863732673416,4.5819964246122936,4.5819964246122936,1.1505026633169124
1.239083392615167,1.7968794674819202,3.5684198941778536,3.5684198941778536,1.9633538019024932
1.555444856609992,1.3772699324626366,4.1813284448035008,4.1813284448035008,3.1858622776930616
1.140809929796653,3.0188739185580608,5.3575977750851952,5.3575977750851952,3.9052648127399936
0.32979915968180352,0.83065649850976336,1.9889115120454272,1.9889115120454272,2.0722399569626016
1.1159325431728708,-0.49696535615975704,2.607126020710748,2.607126020710748,3.7278349893153896
-1.152092637345509,-0.3779809462769728,-2.0382378040865748,-2.0382378040865748,-1.2053189140666726
0.74931539521785968,-3.159044090414088,-2.0151762575281004,-2.0151762575281004,-0.79041716987078896
1.1545809843743402,1.6608270988632162,3.162000471248594,3.162000471248594,1.5235983254536832
1.8876879171972184,2.8875960228840364,6.694778596699144,6.694778596699144,5.2827873246777968
2.7279315920055428,2.0262559943471288,8.3144271559484112,8.3144271559484112,8.1336071363650432
3.59256260930185,5.2216739676584432,13.417083695087982,13.417083695087982,11.816531220084598
3.5052365726185724,2.9486161818110144,10.058720477512956,10.058720477512956,8.6840435370722448
3.2235348005309788,-0.69166733120948896,7.2591294969129536,7.2591294969129536,9.1086903895781824
1.7335829726223922,-3.2671155203295404,3.4997404255623296,3.4997404255623296,8.4329881863741856
2.433085734409186,-3.7269202738378216,4.989887423951716,4.989887423951716,10.703983789841792
1.3257559703934266,-2.4921431691166876,3.3688848349238384,3.3688848349238384,7.824472482735856
1.4458412197732216,-2.0968505231774584,2.5200650824818916,2.5200650824818916,5.293723510183528
3.6139498037621944,0.38752718542525352,7.9889633394741632,7.9889633394741632,8.168736293286056
2.6532912228129664,-1.5156876976637216,6.1548055630124592,6.1548055630124592,9.2765602268945664
-1.2273084924907444,-3.458884534196078,-2.8976452152671616,-2.8976452152671616,1.8476533557412828
-2.2063953332033364,-4.764065395384332,-8.6054161290483472,-8.6054161290483472,-5.6519434986135232
-1.58955692683058,-1.3411453032979884,-6.497581120290536,-6.497581120290536,-7.8043304319729296
-1.2926246890974418,-3.030589917163728,-7.0549281768447776,-7.0549281768447776,-6.9787220997490776
-1.3686455337095754,-2.9628593086433584,-6.4098903142002392,-6.4098903142002392,-5.6382005980162904
-2.1486260140529252,-2.5966352806759084,-7.012649932415844,-7.012649932415844,-5.8330949157119744
-4.9900202285766192,0.78881337744613504,-9.388802405675768,-9.388802405675768,-9.9807844203675008
-3.089594356528724,2.8199006460222652,-5.941365745044264,-5.941365745044264,-9.9333937460644768
-2.7209781295779508,3.440308450585864,-3.6320063571526064,-3.6320063571526064,-6.9825191310281072
-2.7850082599801064,-1.3735803715788876,-6.9885034121952232,-6.9885034121952232,-6.3466197470619024
-4.8233495787237768,-3.0117660193318764,-12.07684066765625,-12.07684066765625,-9.9893331488671312
-3.596375759535968,0.59877973605467008,-8.0321637147546944,-8.0321637147546944,-9.7697455145194608
-1.2587291106268146,-0.10841518501399928,-4.5492362742093864,-4.5492362742093864,-6.4183915496441456
-0.45129561487951368,-1.792225874556002,-4.1081760092050288,-4.1081760092050288,-4.625421976817028
-1.252492813552648,-5.2069000465651232,-6.2648292244230424,-6.2648292244230424,-2.2143227518931052
-2.4977634102795224,-1.4211934621324678,-6.161857685393548,-6.161857685393548,-5.1963983570293496
-3.1027449582818612,1.7398117462837658,-5.864201396427572,-5.864201396427572,-8.1326304957170704
-3.8805140021423584,1.5976574492809712,-7.4893704776232352,-7.4893704776232352,-9.6141991248832112
-4.6101277490933496,1.3677457751695922,-10.53791934148635,-10.53791934148635,-13.90720184754039
-3.0115356598585916,3.101130386915022,-6.15655915468078,-6.15655915468078,-10.94174257001691
-2.693645797296164,1.7898522969067996,-5.471638919132964,-5.471638919132964,-8.2407646890338
-2.4632578587787168,-3.4840164732162852,-9.1563461870639488,-9.1563461870639488,-8.1601519467460368
-3.8104084384875344,-0.84865897016053744,-10.346397125660798,-10.346397125660798,-11.79898891910572
-2.4039918754874064,1.808607108783212,-5.7599229770426648,-5.7599229770426648,-9.4247728662853344
-3.135977816987288,0.3636168438246952,-8.5603397917910192,-8.5603397917910192,-11.394149215344504
-3.02803051055494,-2.7606482875261232,-10.908469432234432,-10.908469432234432,-11.619905412069798
-3.7113041920637328,-3.8660737988530448,-13.437994347890854,-13.437994347890854,-13.654269613374674
-3.8540058605376984,-4.7901077156979352,-13.959456388679816,-13.959456388679816,-13.02573948273733
-5.2563897056833984,-4.1272992092250992,-16.726333787697818,-16.726333787697818,-16.748939350191186
-5.1343924981171848,-0.43149982454160352,-13.155051025507396,-13.155051025507396,-15.394067317968016
-6.4662538071724104,-2.0655773460975828,-17.46737518544311,-17.46737518544311,-18.903876737395024
-5.6774111471951304,1.6637408880911904,-14.415759922342026,-14.415759922342026,-19.97230888243058
-5.7390949030197344,0.2110496354569228,-14.880107626193918,-14.880107626193918,-18.598599899533756
-3.9136733731607224,0.67619798710517888,-10.524843145866672,-10.524843145866672,-14.236636526069666
-4.3062917995709752,0.95121113527803264,-10.48495687813955,-10.48495687813955,-13.784146860054196
-2.592520103450018,0.18537371868814208,-7.1893993681948496,-7.1893993681948496,-9.4718191075218752
-2.8317968941720332,-2.5495585200622352,-8.1308756407189328,-8.1308756407189328,-6.7738197130004496
-2.051050871499144,1.3130454812730526,-5.168722472575504,-5.168722472575504,-8.2049114240622992
-0.004283434739053016,3.2673929178936464,0.0029581712228712308,0.0029581712228712308,-4.8866061649166216
-0.41785811622202256,-0.018689033451296356,-1.0352519919321166,-1.0352519919321166,-1.2067542012432438
0.13143959358922152,1.4823226698875574,1.576873397384197,1.576873397384197,0.66738360275861504
-0.031399794912283148,1.8868237530976844,1.5445421346890694,1.5445421346890694,0.32164822955617832
0.56615976462168784,1.027377616621418,2.6141441806991476,2.6141441806991476,2.5549024072227928
0.426192701437808,-1.0760009003045372,-0.12564593034964632,-0.12564593034964632,0.5103240868818972
0.20910127567244548,-1.6709556138982944,-1.2638003048282684,-1.2638003048282684,-0.43936974015398648
-0.464992248670784,-1.9751134722584344,-2.3851626356922016,-2.3851626356922016,-0.87767056565518352
1.0923238094296886,-1.79756455832366,1.4504092462144066,1.4504092462144066,3.4125177110549264
1.561405142276151,-2.19429813173665,2.3614394120850476,2.3614394120850476,4.891515737222768
2.5217389456788392,-2.0008074153074296,4.529904718070748,4.529904718070748,7.0175426677449632
2.553944723239602,-1.1814737666370204,6.4562936614705984,6.4562936614705984,9.5769085264175248
2.5110024260990688,-0.55447912755040064,7.4284119429237168,7.4284119429237168,10.666537724974898
3.174199246229502,2.4894456937239732,10.21714122008811,10.21714122008811,10.351715407131256
4.1850794468746176,0.73866662281533328,10.374097661529078,10.374097661529078,11.27003649508592
5.4766766106544592,-2.8463531244186888,12.00119567878096,12.00119567878096,17.318567822881036
4.78297761546426,-0.065653144702768176,12.433979459375638,12.433979459375638,15.40048340487691
1.3520874841694694,-3.1462876217222512,4.3746678645108224,4.3746678645108224,10.764592193266082
1.623189115576691,-0.2348878874010958,4.5733725654820648,4.5733725654820648,6.2526987309123912
1.3002818148221276,-1.2850394993124918,2.1278390643919308,2.1278390643919308,3.5826737481083444
0.80081713747159216,-2.6587153687820084,-1.4703096239634998,-1.4703096239634998,-0.55418046969717152
1.0056421493731534,0.66004733341662592,2.8496870332187644,2.8496870332187644,2.6980187675662836
0.23946882891394272,-1.0781356752241194,-0.61142913170345272,-0.61142913170345272,-0.084592408398611824
-1.11742130034918,0.67878937944093672,-2.1977938843042876,-2.1977938843042876,-3.1789292370716208
-0.91164049139370128,0.49345367175456736,-2.2781851013352172,-2.2781851013352172,-3.4732697275148824
0.00616369054250232,3.2777918974370396,2.159863172758788,2.159863172758788,-0.60928888172298848
0.53721028676036328,0.54655761325810472,2.2277784167751648,2.2277784167751648,2.561299840142446
0.59689994023581496,1.010182775103788,2.9763868651985144,2.9763868651985144,3.2436996872697172
1.8854809546762552,4.540953599845464,8.3386006450534176,8.3386006450534176,6.094808980986128
1.9031969861319264,5.4905894693283736,9.1936002052453776,9.1936002052453776,6.344922234234344
0.30874897061232344,3.6030122427933256,4.9211003568762648,4.9211003568762648,3.8201844083378944
0.71024036025289416,-0.32857417301265192,1.7174314243142796,1.7174314243142796,2.5072433876417488
-0.94083912761228384,-0.32951146840862444,-1.255593400659159,-1.255593400659159,-0.1352413434808133
-1.0342689388947606,-2.4186736677435308,-4.6951659305906744,-4.6951659305906744,-3.6937834817765304
0.86708391558643024,-0.51479865916523648,0.36038149385583992,0.36038149385583992,-0.24120685471332592
1.5121364245308246,-2.9126200717366208,0.81237958755471552,0.81237958755471552,2.9694164336527128
1.5285316242208428,-3.683392813845244,-0.092155663339699376,-0.092155663339699376,2.2837146456467812
2.4813689301668848,-1.9726984231904556,3.1776783670395092,3.1776783670395092,4.3516665085309328
2.5591114653504424,-0.54969149833154696,5.6024572396377008,5.6024572396377008,6.9112287960718392
1.837222530348716,-0.080852061515527936,6.2468352469245032,6.2468352469245032,8.940503525424864
2.4850753130570464,1.6336159482689062,8.6959898261233872,8.6959898261233872,9.9714051037293248
2.4431492606952048,3.1524889147141532,8.7916142487664176,8.7916142487664176,7.9681966040711952
-1.0151768731832034,3.6494566736682416,2.332177871920616,2.332177871920616,1.2205244797052758
-1.0362566604902172,1.80496894841107,-0.54914582965728184,-0.54914582965728184,-1.7332317609507342
-1.0872800290124156,-1.2188873905542108,-3.963732757698892,-3.963732757698892,-3.9245743715416368
-0.2776757766845138,-0.4069134954980788,-1.5058244599772964,-1.5058244599772964,-1.8459271233384472
-0.37407748943636656,-1.733809222638991,-3.3745145848710532,-3.3745145848710532,-3.4001603569108872
-0.58724102312219248,-1.0819808250524994,-2.1552535699040032,-2.1552535699040032,-1.513053855984873
-0.8265187908723704,-3.249688740681684,-4.913364787196768,-4.913364787196768,-3.2991588816262684
-1.2056177347732106,-3.823184348461292,-6.1399350141769192,-6.1399350141769192,-4.1338580361154808
-1.3880635670410362,-1.1327220649234458,-4.733163985178284,-4.733163985178284,-4.9911177388893264
-1.2314218368694652,0.57681140590476808,-2.8958855961829196,-2.8958855961829196,-4.1941446274840608
-0.23375378786547472,0.4978258435218492,-0.015096390422784544,-0.015096390422784544,-0.30942397039739332
-1.7942877022665282,-4.1791829282156768,-5.6203831436543064,-5.6203831436543064,-1.3834164904520412
-2.3926304931923048,-4.0384066727291184,-7.7822357062614064,-7.7822357062614064,-4.721600417044524
-0.95025915392848656,-2.27934985446402,-5.2842271058796048,-5.2842271058796048,-5.2489111222062056
-3.6745161074842968,-1.9047824628215432,-9.8980046186256112,-9.8980046186256112,-9.5898033280503136
-3.326019507595488,-2.869046696676672,-9.7538788745104352,-9.7538788745104352,-8.552148688814888
-3.433255177542926,-2.4920971550623788,-10.863386151366764,-10.863386151366764,-11.122116215054108
-0.95503605961244416,-2.0375072178704168,-5.8014133007016112,-5.8014133007016112,-6.636493655372708
-0.021205385837427372,-0.2536428600458822,-1.5079439195499016,-1.5079439195499016,-2.5930127773561252
1.7955892103045308,-0.47173843265827784,2.2787772673946992,2.2787772673946992,1.6739837631677534
1.5992497348197076,-3.3564057290653348,1.3180158944235498,1.3180158944235498,4.4721409128056864
1.2353452002963786,-3.892513550844628,0.79833146252738736,0.79833146252738736,4.9647428507289592
2.0281236932369716,3.3266655419202416,7.5761000645922096,7.5761000645922096,6.1059544298301144
2.187170815162996,2.6861849594646392,8.3686757850521424,8.3686757850521424,8.3337325005813344
0.85000397386411808,3.9196370534745664,6.4925278395672864,6.4925278395672864,5.4055921511944864
0.46127297437965824,4.3636548105887768,4.9278922003366888,4.9278922003366888,2.3877562360308964
0.55155937722967096,0.04442697051200328,1.5876901518211668,1.5876901518211668,2.0056210934149864
-0.72375331795444928,-2.6738902906238052,-2.170070070910122,-2.170070070910122,1.118201930024362
-0.191279416395869,-1.1415750463771086,-0.4407006347076544,-0.4407006347076544,1.213520132942092
-0.82756622026941056,-0.6457767079427168,-2.3737886446160336,-2.3737886446160336,-2.1237797867791704
-3.197347502108894,1.239518087498541,-6.6005421798906896,-6.6005421798906896,-8.6656664868114032
-1.9753645065464044,-0.46731601027816624,-6.539388182582396,-6.539388182582396,-8.4270733366547328
-0.96104687648844304,-4.2714345588612728,-6.6554157685374776,-6.6554157685374776,-4.9815859458061592
-2.0938215694035812,-3.1842383489556356,-6.2500882623383584,-6.2500882623383584,-3.5361758624361
-0.34110856587120008,-4.0248137080839032,-4.7595580778629248,-4.7595580778629248,-2.7996784618575964
-3.2303591827539668,-2.8347520691975824,-9.2560175500561456,-9.2560175500561456,-7.7991886308079872
0.15708416675654612,-2.8979011864581804,-3.8379410640017616,-3.8379410640017616,-3.6431986818293456
0.71484942980531784,-4.152738668057456,-2.6579359906761624,-2.6579359906761624,-0.51646283887677712
1.8129601333246208,-2.04225719479021,2.2752835780201172,2.2752835780201172,3.9880326815763072
1.2731554210085224,-1.8275782014058536,2.8095234942561972,2.8095234942561972,5.8141034486041312
2.1543200151689488,1.1602028881358132,6.1834858795228088,6.1834858795228088,6.3180273965039984
-0.1678132870132738,4.7015125118416456,3.1224159359527444,3.1224159359527444,-0.47181032183043168
1.3583354871601718,3.1280329310750948,5.6927501501360744,5.6927501501360744,3.9767799293391624
1.0388100480229436,5.0541101635961832,6.04969427138416,6.04969427138416,2.4406032013281584
-1.0204215570582008,1.7570743845184158,-1.3738013061094432,-1.3738013061094432,-3.3423710748801088
-2.589342430146594,-0.64369529153235128,-6.6894526943443072,-6.6894526943443072,-7.2346775910969008
-2.35987628304559,-2.5692427854654328,-7.7212503324597488,-7.7212503324597488,-6.868883920630168
-2.3139932874474368,-3.3643767271006304,-9.5706996140978128,-9.5706996140978128,-9.4668475626498048
-1.6997258173338188,-4.6674329294900424,-8.1876034332644336,-8.1876034332644336,-5.9746058376261664
-0.69479117079579792,-2.4751630444349856,-4.5309332228538216,-4.5309332228538216,-3.9595395374635696
-0.89729361778874928,-2.9031991130325928,-4.9974920141414824,-4.9974920141414824,-3.8455981231565752
-1.6310925739379782,-0.1595772747372719,-5.0802044425674208,-5.0802044425674208,-6.6588578251529792
-2.309677534777742,-2.1534241496812848,-8.5824422812618512,-8.5824422812618512,-9.3153932684462896
-3.5615073139479732,-0.95970230562021968,-9.6981772998620416,-9.6981772998620416,-10.833786513397806
-2.4579624754166752,-2.153323398442976,-8.2376466690980864,-8.2376466690980864,-8.32938328969836
-1.6728321771538454,-0.26741115497330292,-5.83108108842514,-5.83108108842514,-7.9153810900826336
-1.042928479096787,1.1160232168650668,-3.3430537455013632,-3.3430537455013632,-6.274285358106752
-0.72073593317437008,-0.48746598389445904,-4.0416719419277864,-4.0416719419277864,-5.9106730416651448
-2.143670727599496,-0.61215208192050232,-6.3456924392247096,-6.3456924392247096,-7.4858153003696752
-1.234750161131894,1.2383542489443426,-1.87316869015161,-1.87316869015161,-3.1343684314559456
-2.211422540223822,2.722544902551312,-2.1594584228075632,-2.1594584228075632,-3.9798891189944496
-3.1353459337421992,3.8551655665181432,-3.767379993302504,-3.767379993302504,-7.0468164688978256
-3.710135033750376,3.4897412706285716,-5.8958286878874328,-5.8958286878874328,-9.6059992142169712
-3.9227146540911008,0.61806683607544936,-10.038468566633936,-10.038468566633936,-13.158608079198846
-2.2927561158056156,0.79351921108060448,-6.9200080090541048,-6.9200080090541048,-10.444782603117886
-3.7605838366855696,3.1277386570250724,-6.6357787300841888,-6.6357787300841888,-10.441997772334848
-4.2685286299796984,2.2960281306255588,-8.8679412323712048,-8.8679412323712048,-12.642867400721352
-3.45970492697717,2.7915030706717356,-7.1863055519029472,-7.1863055519029472,-11.640455855859158
-0.53631843778787272,2.4390890805632524,-1.8284092574043136,-1.8284092574043136,-6.2428152600777608
-0.98277039535562768,-1.039050306486815,-4.5212316701393104,-4.5212316701393104,-5.5183470898371432
-2.6455109629220524,1.1196327745571954,-6.2036543722919128,-6.2036543722919128,-8.7957359805755136
-2.6884785465301832,-1.426052503951385,-8.7716345123553264,-8.7716345123553264,-10.02723317572321
-2.1579556157656072,0.44739484273517968,-6.623944833584552,-6.623944833584552,-9.6030706997406592
-3.6512663323145184,-2.477436026647638,-12.132743529960452,-12.132743529960452,-13.246800355320412
-3.9791128521679696,-3.9398835815024136,-13.664858619535164,-13.664858619535164,-13.461666162480768
-3.0837151191125348,-2.4092967522710156,-11.482545358506422,-11.482545358506422,-13.183715350381252
-2.9909592780595732,-2.3547472242773208,-12.162203208862682,-12.162203208862682,-14.810367025190234
-0.78467679929518528,-0.91644107568130944,-5.7848079093690288,-5.7848079093690288,-8.6256006066257232
-1.2412010247780482,-0.3996931641360684,-4.7614432237007728,-4.7614432237007728,-6.4409446516413456
-1.7638552319713396,-0.38132326397840464,-5.1466399541140296,-5.1466399541140296,-6.1935845483177736
-0.67870214172574552,0.90833656585363808,-1.7545097143171058,-1.7545097143171058,-3.514119993963178
-0.49550128082765584,1.366350641906164,-0.43664757873627736,-0.43664757873627736,-1.9318185586764888
1.0266057086748372,-0.80877108633157984,0.59553457970901544,0.59553457970901544,0.35101437156572644
1.9585277322653184,-2.4984937586235872,2.9946630873158712,2.9946630873158712,5.8200113480364856
1.97894984003332,-2.2811751614553312,2.9051811536035224,2.9051811536035224,5.2742253693234024
1.7570953261119608,-2.3555105658831308,2.1298430567514,2.1298430567514,4.2787613101035744
1.194140991602163,1.6080885548138984,4.4074148255329792,4.4074148255329792,4.0144148356407848
2.6851284150212828,0.4458664055266788,6.6651987952936256,6.6651987952936256,7.2913411522546672
0.63197129529177976,1.8628766988392532,3.9154198326009272,3.9154198326009272,3.7725820263594152
-0.78031320426786448,2.8600061745125772,1.0560443934683942,1.0560443934683942,-0.6172940662963484
-1.8403655733428716,2.1426410199572476,-2.4432229446278196,-2.4432229446278196,-4.4196762725057672
2.4729791226296728,1.258325251158278,4.1064380012376152,4.1064380012376152,1.3794298804784678
1.6792402422288394,-1.2237917754175812,3.5947543964513792,3.5947543964513792,5.6667159715714504
0.15365166586149814,-0.8589376853835496,-0.10376563951949858,-0.10376563951949858,0.77357191731333104
-1.8151706994331916,1.4730221703220216,-1.4171719705594476,-1.4171719705594476,-1.4135357977355442
0.49030358305056,-3.5923224090752304,-1.9103523440136924,-1.9103523440136924,0.58717175948434096
0.18504290832444188,-2.7182038297619852,-1.2223235100532044,-1.2223235100532044,1.262572907887685
0.61157015153422192,-5.5356364974866048,-4.7483485235384816,-4.7483485235384816,-2.416382603915502
-0.04653396856200276,-4.0511934711277648,-4.052226617806436,-4.052226617806436,-1.9345950917972188
0.83434866673637712,-2.3374251249856468,-1.4962015908592034,-1.4962015908592034,-1.1549628277126906
-0.40568991667362616,-4.6574159297854248,-3.899862723117772,-3.899862723117772,-0.0022217182101547108
-0.025906879491160552,-3.2608941221548368,-2.5756422088757932,-2.5756422088757932,-0.20812947553701148
1.775162153434673,-2.5402072107749936,1.6152589713427094,1.6152589713427094,3.4905044519785632
1.80628035452603,-5.1567622090429536,-0.45282368566700096,-0.45282368566700096,3.2169352331783688
1.3507228172398194,-3.5722319613079908,-1.0165451095596218,-1.0165451095596218,0.62381208836310352
1.05342870133211,-0.14020451475966134,1.1467162007698772,1.1467162007698772,0.39688177101502656
1.5231524928706776,1.0496669580022458,4.3927566914367592,4.3927566914367592,4.1647079601287944
1.8676104993563856,-1.17672523374265,4.37828756042186,4.37828756042186,6.786441972744924
1.5501937685006508,-1.7300329071004388,4.0134869101848576,4.0134869101848576,7.521635644019072
0.4851533876605236,-8.9347963103688208,-4.3884191167691088,-4.3884191167691088,3.6550494566939664
0.7435065810759304,-4.2158188529445712,-0.52843125536913912,-0.52843125536913912,3.7798526065267176
-0.43018060207860552,-4.0210725180209088,-3.983880913899296,-3.983880913899296,-1.0757918466100176
0.22195848668630076,-6.4402959393698696,-4.2011004491013856,-4.2011004491013856,0.81432603747943152
0.76546546894219984,-5.0169330542372416,-0.74884221195208928,-0.74884221195208928,4.4967842195672832
1.7559757933304692,-4.3148033750232584,1.9414525427167328,1.9414525427167328,6.8431585613074144
2.4647053758692476,-4.7168993463411584,3.1114291603605336,3.1114291603605336,8.3687965884943088
3.1856055438759756,-2.519732228343044,6.197670648120452,6.197670648120452,9.8037285510035184
3.0793181185282116,-1.5987199199182792,6.436618276305088,6.436618276305088,9.1126801954311712
2.2582421798153412,-0.40623822681002744,6.2084061799600024,6.2084061799600024,8.5096853405043632
3.6315392424673328,-2.8077425534722916,7.3834468458583776,7.3834468458583776,11.71542903699053
5.0306546675205576,0.12637097571077872,12.324834021927494,12.324834021927494,14.398802245247706
4.4372902072228496,-2.203626798600944,9.9905812081261296,9.9905812081261296,14.412022199707976
5.2814481400447896,-0.51892227719015552,13.574571790747846,13.574571790747846,17.364630717191346
8.1234165315501664,0.36960436929302672,20.538236513660792,20.538236513660792,24.275233410281708
6.1357672664542688,-0.37734934139032448,17.10886475188423,17.10886475188423,22.512218982945404
5.492953007307332,2.4933478185482876,16.387391031532644,16.387391031532644,18.0488543206282
5.2777916929808112,1.7672598908881616,14.774994970424254,14.774994970424254,16.343516718554642
5.6569764457106304,-0.12496666155486392,12.896244231459224,12.896244231459224,14.665985563829484
4.8106538997321,0.091484339176974848,12.205459747704304,12.205459747704304,14.652385187178948
3.5360605518590828,-0.2252742638426054,8.7921987911063984,8.7921987911063984,10.850187874258542
3.80065557517902,-2.5077343310184736,8.4885324167075264,8.4885324167075264,13.137355179584722
3.281663791344722,-1.2553890454682028,7.8448013148173984,7.8448013148173984,11.009358615147658
3.1082595319994568,0.80719848184241104,8.2156126749953696,8.2156126749953696,9.003908563228208
0.98163934126605776,-1.2395731016169344,3.855164463354204,3.855164463354204,7.606409896601696
2.0561780432710208,-2.4659659078994188,3.4475511085985636,3.4475511085985636,6.4816949925042152
0.94003440719517824,-3.460314112363638,0.059544117012773176,0.059544117012773176,3.4294905881806472
2.7297021362386828,-1.2941657668556666,5.1775406052730128,5.1775406052730128,6.8369255883521592
0.76394425166175088,-0.21875887840872288,4.028326261594968,4.028326261594968,6.8569023374795176
0.59002669391849024,1.3176494435026566,2.0222685927202824,2.0222685927202824,0.88800963234959968
-1.3637647973025318,1.7205942486339386,-0.90546724157879264,-0.90546724157879264,-1.6642962615034296
-0.23056952433817988,2.6010385801259472,-0.14577353235404066,-0.14577353235404066,-3.7319658862206424
-0.33718308084989228,2.8306004842906036,0.54591497693903368,0.54591497693903368,-2.479704610858054
-0.2688495533512244,1.489994940971211,-0.72544049221653952,-0.72544049221653952,-3.1481742891874464
-0.41215833728917264,-0.81902046391476608,-1.399104354300824,-1.399104354300824,-0.74536133815115376
0.18850574855479408,-2.0661424999943568,-2.65023584224208,-2.65023584224208,-2.5782694316022128
-0.78698293205075296,0.073484102781803392,-1.7544278141546692,-1.7544278141546692,-2.0451159183805376
-0.26636086327876036,3.1198688003928564,2.0722377364691656,2.0722377364691656,-0.002606001093433008
1.22250970014778,0.37578593996563624,2.027742708157846,2.027742708157846,1.0467871060716772
2.1511889685520896,3.1485910173925332,7.4256363208503584,7.4256363208503584,5.8260081785077368
2.7461730467318632,1.607289437763896,8.6434378839635872,8.6434378839635872,9.3835955178176032
1.0306327243529944,-0.66694029640911832,2.6336849595125132,2.6336849595125132,4.2065149149327144
2.2436854695048704,-1.2130867943408812,4.7957911298293512,4.7957911298293512,6.9238415121602832
2.1047957947694152,-0.11556773259710862,5.7825294922224976,5.7825294922224976,7.5288189938018288
0.46019504730354008,2.3950817636334932,4.9943966309161024,4.9943966309161024,5.4757805217748848
-0.49489847766428,0.93222204885149408,1.73312100108745,1.73312100108745,3.0577058842262188
-1.8099045187630884,-3.0552953370069832,-5.651249968733084,-5.651249968733084,-3.0997478944295164
-0.78606724645736176,0.5720073361168416,-0.95955796781891584,-0.95955796781891584,-1.2049924468983704
-0.93393344956597776,-3.9423270136289944,-5.1763869125354584,-5.1763869125354584,-2.5714164054954712
0.5202656912752028,0.03369552515307772,0.79457965888922528,0.79457965888922528,0.49808464749842816
-1.144176684046344,-0.3589271950175572,-2.0784002944049028,-2.0784002944049028,-1.330056428190782
-2.0147547679333232,0.80589223009112576,-2.9902048058496452,-2.9902048058496452,-3.1597384209693324
-0.71053750627100752,2.101657193873464,-0.99466415115375888,-0.99466415115375888,-3.7207390805756984
-0.43916439758956336,1.1468695225081434,0.019585830818421468,0.019585830818421468,-0.80280382694624544
-3.0917579995369472,-0.44842714334209576,-7.4869586360911408,-7.4869586360911408,-8.1177605580952416
-1.6755757768727642,-0.073151043204089664,-4.6080141875235768,-4.6080141875235768,-5.7551502564954912
-1.0682413519124236,-3.0767811652318868,-6.4557889115605408,-6.4557889115605408,-6.159923371448404
-1.42055756888819,1.7053873265535772,-2.482873838976534,-2.482873838976534,-4.6827135300070552
-2.1550916869599128,2.8872019836013792,-2.3356372416093364,-2.3356372416093364,-4.691894084700916
-4.5584796854807192,0.91620207490054544,-8.15980206660996,-8.15980206660996,-8.5769478746092992
-5.5036519486323112,-1.7874462714655206,-14.265533590019614,-14.265533590019614,-14.842593875576326
-4.2359773529059072,-1.7568121680067106,-12.373981072232584,-12.373981072232584,-13.640789186643286
-4.8202811314799768,-4.520801787450244,-15.682506355526868,-15.682506355526868,-14.943247766918416
-5.1896237568154168,-5.3147896587182776,-18.189265678954092,-18.189265678954092,-18.027099356199932
-4.7109392650115856,-1.564406994819078,-13.164679496225446,-13.164679496225446,-14.560869970199104
-3.7609445538576536,-4.4863935973090104,-13.70935188983995,-13.70935188983995,-13.167224276001076
-3.6696745319813264,-4.7383705493226504,-13.33464659051412,-13.33464659051412,-12.22238829308161
-3.017532007032168,-2.7962672833404064,-10.20795449436526,-10.20795449436526,-10.186444049655578
-3.6022659180230324,-3.6086875929515064,-12.473796665932146,-12.473796665932146,-12.330030106390968
-2.5980488105465676,-4.43301699994916,-11.349382909183398,-11.349382909183398,-10.85314269734992
-3.9114409053633944,-2.877263927465722,-12.36102667414927,-12.36102667414927,-12.58327564637317
-3.8440753090097632,-0.42325067246999648,-11.331693269477806,-11.331693269477806,-14.340359912231092
-3.7913867033373888,-0.45943254454977424,-10.190164849164878,-10.190164849164878,-12.108407474830318
-2.1695728444616032,1.3321140252136994,-5.7923701892820832,-5.7923701892820832,-9.2437657274615088
-2.1409472749638052,-0.54178281011717144,-6.8360332512966248,-6.8360332512966248,-8.5774977374898816
-3.3453379220684372,-1.1574036915179482,-9.2891400248511856,-9.2891400248511856,-10.151498668288574
-3.1941461939070352,-0.0073765071503245632,-8.8821507878152752,-8.8821507878152752,-11.364944427090994
-4.7710276829663528,-5.4399531379578712,-14.957946027932784,-14.957946027932784,-12.21390698299606
-2.414714427687274,-5.588565604699088,-11.289998000954412,-11.289998000954412,-9.3677187394856448
-1.5812621201891636,-3.8260802078824824,-7.0159332469744712,-7.0159332469744712,-5.1302219417468936
-1.0234603486685932,-2.7483499948469296,-4.1631046645852352,-4.1631046645852352,-2.15676363956289
-4.6364185646978224,-2.5648855738127936,-11.38830733674346,-11.38830733674346,-9.6564491833720816
-3.1706757802140072,-5.2957830818839816,-13.324207566129324,-13.324207566129324,-12.363388949004664
-2.2202400763183544,0.20566674933118368,-4.9227034248322904,-4.9227034248322904,-5.713426821024648
-2.764132078845762,4.7154151952207296,-2.4016601137581436,-2.4016601137581436,-6.3481788626558576
-1.120058050201876,3.1586521801980608,-1.112419774560754,-1.112419774560754,-4.7227017190148472
-1.381103516279367,1.3089061446645698,-1.9526170355114432,-1.9526170355114432,-3.1063862554610076
-0.8211505321453784,-0.38943604288020648,-1.8352288930418496,-1.8352288930418496,-1.4440026574726328
-0.54496277642947552,1.1003880615668022,-0.84646117763298896,-0.84646117763298896,-2.25357889475723
-0.3735419228741664,-0.29108679267559924,-1.3811304914925558,-1.3811304914925558,-1.5785469482233794
-0.69395699326597568,0.22135682005079796,-1.9577283731328032,-1.9577283731328032,-2.859577989809852
-2.2117927212946012,1.5115526986461628,-4.3630905046899696,-4.3630905046899696,-6.5699246147599792
-2.2820991613330692,0.5492166246146808,-5.2269483372359488,-5.2269483372359488,-6.71352328872778
-0.9265980760313304,-0.49911287876965464,-3.4826260651445368,-3.4826260651445368,-4.3633866600719304
0.97524544883498736,-1.9538786681022512,-1.2563668697073372,-1.2563668697073372,-1.532406634931273
-0.59601975307244792,-4.6554413011300536,-5.2701920674723192,-5.2701920674723192,-2.3651826771046612
-0.3764723476720572,-2.1373749638272484,-2.3789322380357708,-2.3789322380357708,-0.7988573349865552
-0.68175949658858136,-4.9381459299705544,-4.134645183386896,-4.134645183386896,0.50144752135920376
0.12251931251880232,-0.17177369408924826,1.462243179401594,1.462243179401594,2.9371082748994556
-2.0770253314199376,0.8381446062116344,-2.544329035377518,-2.544329035377518,-2.191824317232612
-3.9652226298010344,2.7562238594482156,-6.0972507041648128,-6.0972507041648128,-8.3983919378998784
-3.5321701740368444,4.0334525057924736,-5.9473658594239216,-5.9473658594239216,-10.880570129462864
-5.354640250444992,0.85814398514306496,-12.677510106455304,-12.677510106455304,-15.932955689735226
-4.4066095279406264,1.6674815727212656,-11.041199121283846,-11.041199121283846,-15.770401545768338
-4.0862391050316608,-0.62011452080249544,-12.986903624785888,-12.986903624785888,-16.871157258304712
-3.8283293919962952,0.19477716216215908,-10.419582603884164,-10.419582603884164,-13.474672167018976
-4.446496738874856,4.9508129303641264,-8.4072580749317152,-8.4072580749317152,-15.347742067659906
-5.6584344481978264,1.9248543845772636,-13.185223552253358,-13.185223552253358,-17.940859784976958
-4.6103297382006856,-0.98454283586380912,-14.073555792507378,-14.073555792507378,-17.44963785481767
-1.3751851391903664,-0.55142250949383384,-7.9624007957309568,-7.9624007957309568,-12.347297548840432
-1.6590353860510994,-0.87698542866185584,-7.0016126037220376,-7.0016126037220376,-9.3696762923490928
-3.3628113432164812,-2.1437201513431744,-10.592891926767962,-10.592891926767962,-11.2445809400882
-2.539782313146992,-3.6376865850385472,-10.056564070224628,-10.056564070224628,-9.5770336365974512
-1.8194107715708608,-2.4138945054866076,-6.9425769522507096,-6.9425769522507096,-6.6254906031297856
-1.1384525278354962,-5.87989486893814,-8.2756291861889728,-8.2756291861889728,-5.4545110132997392
-0.99301874966366304,-2.1296352534513624,-4.4785837991556488,-4.4785837991556488,-3.7766772188069272
-0.94792148120387536,0.069779985429686776,-2.6837030702786916,-2.6837030702786916,-3.5762331562941628
-0.068082082580804728,-1.5209517150969388,-1.9866939782809396,-1.9866939782809396,-1.5557962187548618
-0.27976165182929236,-1.9452616774582232,-1.5926544203581212,-1.5926544203581212,0.29210697912967732
-0.70772154788782784,1.267887393326221,-0.53390991445201784,-0.53390991445201784,-1.5542078231177114
0.26465242471058124,0.30763291516848544,0.42323994822218456,0.42323994822218456,-0.14427432572952164
0.29951170041589832,-0.4757708127335232,1.864911489398794,1.864911489398794,3.844455797066076
0.94739175132929296,-1.1817662427728174,2.834600529135966,2.834600529135966,5.5470669197725728
1.9218877384670424,-0.082982511549997472,5.1324338155976672,5.1324338155976672,6.5455659215862472
1.8100526981249336,-1.0778591699818138,6.1287855477861552,6.1287855477861552,10.254254454295162
1.3488688402840108,1.916452011803418,6.8487394075315024,6.8487394075315024,8.1250631167898576
1.7356456218297254,-3.1683274001597988,3.5367049451942156,3.5367049451942156,8.3546097469686784
2.25041626745978,-1.5458890979836302,5.4230289973929568,5.4230289973929568,8.6640591068418
2.3841795691631672,0.056744123990156048,8.890644007243632,8.890644007243632,12.927812690175696
1.1438900804122584,-2.1529447340055848,3.1105343444562388,3.1105343444562388,7.1627056290963384
2.5658392731076024,-3.18200417124012,5.5722955271336744,5.5722955271336744,10.785918764912324
1.8179875738187624,-4.706045224173488,2.5472185067350192,2.5472185067350192,8.5175297020927456
2.12853082530444,-5.5484696113412376,1.6997788053626274,1.6997788053626274,7.4652003771282304
3.3786964896630548,-4.1112043249521128,6.058535837494012,6.058535837494012,11.526485183090084
4.4596459895783168,-2.3580689352669396,10.172319046914606,10.172319046914606,14.962449517572988
3.0106296727936336,0.89227340070704416,8.852301541517616,8.852301541517616,10.344933636387398
0.79763755355214944,4.3306466748463856,7.3983523172504592,7.3983523172504592,6.7054595151270416
1.9461867429702888,4.4271031439856488,8.5656483906345904,8.5656483906345904,6.5982685793501312
0.7190429593743,1.4926333386549638,3.2578043796500228,3.2578043796500228,2.838572832569
0.12040729244941828,2.7851205737795568,2.9500511458719316,2.9500511458719316,1.4816068461756918
0.72227824534783408,1.196868202549493,2.9837030659818908,2.9837030659818908,2.727547337443874
0.98599840921526496,-1.6284668275281444,1.5298681111968214,1.5298681111968214,3.5304396452553296
-0.82733463709474944,-1.834549477155124,-3.3021795926194964,-3.3021795926194964,-2.197865695316808
0.34571903334814248,-1.739770083871294,-1.2607563406250936,-1.2607563406250936,-0.60329562213953088
-0.33782577057268896,-1.535472517322563,-1.496722435704893,-1.496722435704893,-0.014584554280563378
-1.313190794631927,3.0264140568540228,-1.323547686644166,-1.323547686644166,-4.560334869305512
-2.4008292364719232,3.9449049995775856,-2.7729584284267248,-2.7729584284267248,-6.6616158832759816
-0.53650991904493448,4.2921759795352624,1.3343826744764758,1.3343826744764758,-2.6964787822600728
-0.090492572152889744,0.69388937635462792,-1.2912248287308036,-1.2912248287308036,-3.4422985776877696
-0.27990451125792056,0.065452605802454544,-1.4212757601032918,-1.4212757601032918,-2.380921406394424
0.33893627313662988,-0.27914521248639184,1.0081581254735738,1.0081581254735738,1.7571615234034756
1.4874320427724368,-3.2524299511587184,0.05792667933839368,0.05792667933839368,2.0196341998699916
0.80716530629736768,0.38662663065688504,2.137691658993992,2.137691658993992,2.0811127594079208
1.13159080384149,0.75639506599992208,3.8001531629954648,3.8001531629954648,4.2025321193080672
0.95052120215066544,-0.48415404891612056,2.8804090444689504,2.8804090444689504,4.5860067580107512
1.284442911658819,-1.7462543671742816,3.170151990259982,3.170151990259982,6.3907997079637496
1.0226755547854902,-2.9969136171554748,0.86260846248974304,0.86260846248974304,4.1752362411417184
0.45665410342363568,-2.2672494349799088,0.3529078546412222,0.3529078546412222,3.193381654905036
0.14463059149488272,-2.8644740628963284,-0.4600639960715224,-0.4600639960715224,3.0873219192116828
-0.16779573629814276,-1.6696554950313294,-0.6539926186433804,-0.6539926186433804,1.5320894778565188
0.66839943277832648,-1.291571581859638,1.9719938032793208,1.9719938032793208,4.5445461137914464
-0.43068720926545656,-4.1459109530917976,-3.2749414262414164,-3.2749414262414164,0.53035799568577576
-1.069011238515934,-2.7220582306914472,-3.8853907874599312,-3.8853907874599312,-1.549671751850823
-2.3630625903914792,-3.3827018686436468,-8.0353157478564832,-8.0353157478564832,-6.270453511964536
-3.9594873744779992,0.56657472271189848,-8.5049924310947312,-8.5049924310947312,-9.9408721973013104
-3.9709948934840856,0.80361892522692528,-8.8083780356719744,-8.8083780356719744,-10.880194672216164
-3.35060919366228,1.0762416493891516,-7.2978225177824416,-7.2978225177824416,-9.5087891223240496
-3.6258731752409744,3.5182752071262076,-6.645791275566692,-6.645791275566692,-11.317249011340748
-5.0992056367882752,1.9927674764921268,-12.03042735420782,-12.03042735420782,-16.85159464957728
-3.9610082869599192,-0.50202760774867224,-12.27126803946275,-12.27126803946275,-15.867478093382656
-2.9473788763850264,1.6102389510925906,-7.8609620397650848,-7.8609620397650848,-12.242524753399004
-0.28287521507987856,1.9094926159176384,-1.7981776915415212,-1.7981776915415212,-5.8948438767997432
-1.2590205128547832,3.7941773788869296,-1.5127391493118516,-1.5127391493118516,-6.1987033412445312
-1.2658129647807374,3.3680594273598308,-1.7953528419281994,-1.7953528419281994,-6.1111688953346696
0.62688300441152856,0.5837812263104036,-0.3134378686677486,-0.3134378686677486,-2.75631358562416
0.25883807254096536,-0.6245981410929504,-1.0096048956571744,-1.0096048956571744,-1.5999887247568536
-0.49369073844682512,-0.076812593618724272,0.038060413406028392,0.038060413406028392,1.1787211941337934
-1.4407728445496204,0.68948706515925984,-3.1506061251109036,-3.1506061251109036,-4.453897158861456
-1.5601044412842516,-3.1511645742627364,-6.3683335684426728,-6.3683335684426728,-4.8897113929227392
0.3487272387464644,-3.6707698129525656,-2.919880329931104,-2.919880329931104,-1.0310604179262884
-2.1488558476208884,-4.7376866703277368,-7.596077685842512,-7.596077685842512,-3.7879136709516424
-0.99622908187670192,-5.5226231489225824,-8.1592259441186736,-8.1592259441186736,-6.0420590011000728
-0.75587969965078256,-5.9196412019691024,-7.637244102483472,-7.637244102483472,-4.8832670027117256
0.17108562095336566,-3.9267591684989144,-3.38691482464739,-3.38691482464739,-1.2258621384531408
-1.1653468377009618,-5.9094739415296488,-8.4265072673798672,-8.4265072673798672,-5.6581099470633328
-1.278123755012976,-4.6562792877837384,-6.138322521779916,-6.138322521779916,-2.735978601858272
-2.1728244636863668,-3.2990082067925912,-5.879033425025128,-5.879033425025128,-2.4639056124886344
-1.2711398311377642,-1.3748326675708308,-4.7346458715724072,-4.7346458715724072,-4.8647630795130416
-0.74426380260769696,-1.1118132346026028,-3.3544139655145688,-3.3544139655145688,-3.55258047390984
-0.74291760056987792,-0.009078833076930248,-0.86260963852518656,-0.86260963852518656,-0.225765826295222
0.20774856255571116,1.1271776808623186,2.7603942162032132,2.7603942162032132,3.4145247860015264
0.5252348232385324,1.6795139955307596,1.9694943018489764,1.9694943018489764,0.36924796392474856
-0.71364240478892808,0.6961401521572392,-1.1730910799492756,-1.1730910799492756,-1.963107578556554
-1.7269173663075024,-1.6153545906358784,-5.0847354621432736,-5.0847354621432736,-4.292604305717724
0.42814587136194056,-3.2100825907173568,-2.3534221751214092,-2.3534221751214092,-0.74801220689066352
-0.67349002255346368,-4.6548703592802208,-5.1994859211795216,-5.1994859211795216,-2.0696862583317836
-1.0360455039612016,-2.4604839117375556,-3.4414268276304492,-3.4414268276304492,-1.1200367797321622
-0.14715875812906776,-4.1755442531428224,-4.2131594699862792,-4.2131594699862792,-1.8686850440001888
-0.41941824734683032,-1.1932183049660648,-1.4091607947934932,-1.4091607947934932,-0.18965763744422892
-1.5668421925290322,0.29255482776997576,-1.4361739174850488,-1.4361739174850488,-0.17749569156699696
-1.2855588383568838,-5.0307240329580648,-7.1103563532581152,-7.1103563532581152,-4.1035089803653648
1.1568779125441868,-1.0337048854882766,-1.2980078343915274,-1.2980078343915274,-3.3592141656390128
1.112145180570316,0.86479385445126224,1.9518405229004904,1.9518405229004904,0.38219990298345552
3.0901384608649804,-2.543552323367176,4.430449084428352,4.430449084428352,6.4959497321775072
4.0364885505946344,-3.0795047626601008,7.3494662482292352,7.3494662482292352,11.245212539259356
4.5425033940497144,1.1299163849379314,12.281679048867904,12.281679048867904,13.78347673222948
6.4180958709263016,-0.97195364239177136,14.589917553499082,14.589917553499082,17.801573828733214
7.3105778106911264,1.3358701332121962,18.345056405997768,18.345056405997768,20.065151990794988
7.3239867607001616,2.5105532529665028,20.216380733575932,20.216380733575932,22.018958066301788
7.5511237550563152,-0.3624425133397888,18.402973510190772,18.402973510190772,22.2473632802786
4.4912499935794992,-2.2522997823213152,10.971502536700544,10.971502536700544,16.338954759724064
3.960548814190664,1.3722273057804544,11.410168704406668,11.410168704406668,12.840898821761326
4.4902891923117192,2.0199891832691684,12.441160191415184,12.441160191415184,12.871758223303176
5.0817140486669096,1.6767965274716508,13.549376212336678,13.549376212336678,14.420129536132058
4.2578009910165312,-0.63781097866366872,11.144253185503952,11.144253185503952,14.729620856970346
3.7616341010554624,-0.66908556945306432,11.169087381325638,11.169087381325638,15.818534914719948
2.9046253978450332,-3.1948100590970288,6.5918070925419416,6.5918070925419416,12.166578478039358
4.1608158538581568,-5.8218520835796192,5.2897053565977376,5.2897053565977376,10.99055713084859
5.1792198750602776,-4.6908558185443664,7.9096339890361712,7.9096339890361712,12.497111955768336
5.1039543335900224,-2.7112832942629724,10.111644381940898,10.111644381940898,14.082305038096214
4.8155253066448776,-6.2066800875497344,8.8952667400234096,8.8952667400234096,17.469502998081666
3.4739782803884652,-4.6953501835151584,8.1839682892189552,8.1839682892189552,16.463005292933716
3.877407228964972,-3.8057029884492168,7.8268905046719376,7.8268905046719376,13.607521034087756
5.1814500306188696,-2.7179150275358568,10.454567918429686,10.454567918429686,14.623108316925416
4.990682190139628,4.6087606255589696,17.105182639030488,17.105182639030488,17.31585995944327
4.3530199187261352,1.2917755814562112,13.479458819092316,13.479458819092316,16.315214428548042
4.7701818600754632,2.9185679870525188,15.399261062648372,15.399261062648372,16.880306424567034
3.2887118762216952,2.1048048068965868,12.678363037085508,12.678363037085508,15.622095111382748
3.2232550722259172,1.1669010049589346,9.9241471895483648,9.9241471895483648,11.651432727206492
2.1417179667314608,-0.14831745709591294,5.89113937269034,5.89113937269034,7.7213189975616256
3.0463088631000856,1.0863274200179276,9.39493784419944,9.39493784419944,11.067766832171818
2.2382353598088092,1.3499692399703634,8.3489789166262512,8.3489789166262512,10.196533253679338
0.32246953034014168,5.4888006345643344,7.1501301780952424,7.1501301780952424,5.4221203436637008
1.3879091877845676,5.6218668062312888,7.0444383601945832,7.0444383601945832,2.8802581354730976
2.6322174848780384,4.4909696867030512,8.4773081792543296,8.4773081792543296,4.9537268586980056
2.3908940061653528,3.850400069750064,8.1277510966798304,8.1277510966798304,5.6981140764038592
2.0770370423599816,2.0182748976093112,7.0645385785307192,7.0645385785307192,6.9475907259275104
0.79104552201045616,-0.52906127244683752,3.1475709842143144,3.1475709842143144,5.5066428330779728
0.43174345338431256,0.36490146633115888,1.652309535763429,1.652309535763429,1.8937799652614948
1.4263463895600306,3.6180600504924888,5.9036391094037128,5.9036391094037128,3.5274953639486292
2.889785857477638,1.9372393688640032,7.5383167434430144,7.5383167434430144,6.3912027186347472
1.8983438525028648,-0.4483458430490224,4.3190684306230288,4.3190684306230288,5.5139679208138608
1.6285835317393754,4.8436802543374016,8.7174745698562144,8.7174745698562144,6.9122616947275776
1.33492576501904,1.37484481366723,5.7482545226416416,5.7482545226416416,6.7643902947443576
4.6982131601607368,0.17124520231910744,10.994588918360108,10.994588918360108,12.335883712920082
3.7604616206265984,6.9116318274462672,16.567223454874388,16.567223454874388,15.246075927326172
4.2429637996192448,4.7327384761345536,15.454278258915378,15.454278258915378,15.323521204390438
4.4058333819842896,4.7326801593438968,14.670331486551052,14.670331486551052,13.429975970117678
4.4804663854514376,5.7762053708274352,16.64293211744586,16.64293211744586,15.660623407747694
2.7167188228339824,6.5666025591579672,14.027112524527068,14.027112524527068,12.77088356464922
1.6127385979513098,5.0063306625791592,9.8515982928536592,9.8515982928536592,8.9682233959359616
2.2359079469442732,4.3626254695151136,8.8352732986560112,8.8352732986560112,6.6547924991508056
1.1647072754646494,2.0105636468909952,6.6779297709152688,6.6779297709152688,8.0105995205647472
0.63383556904722464,3.5180010135836604,5.6042826464902584,5.6042826464902584,4.6638926345105768
-0.49644822123293544,0.4461285243132824,1.2847685348284172,1.2847685348284172,2.893240725652782
-1.8859955529527324,0.18454995318268984,-0.9701666308667168,-0.9701666308667168,1.5548329143979966
0.31622252564008124,2.440456054494732,2.8987505344677356,2.8987505344677356,1.5043719359132102
0.52940921101339744,-2.5482279391340564,-1.573445486829345,-1.573445486829345,-0.38336748698440016
0.95389141785164912,-0.88478611460556208,1.2845312079741528,1.2845312079741528,1.9884587521533508
2.7947575405193736,-0.47958404388573048,5.9356368767656352,5.9356368767656352,7.0011347383211184
2.7567952811636788,0.12537015439490062,6.3697057583946216,6.3697057583946216,7.0377657228695336
3.8732071532788424,0.67548779345215768,9.9614312492335456,9.9614312492335456,11.163216501731168
3.3223767154610132,-0.95608990071394288,7.8030911327407376,7.8030911327407376,10.395563685630362
4.7262011267446592,1.1782396298516686,12.310210353298774,12.310210353298774,13.400659008330728
2.9130682353814264,0.50086050721901576,8.977993687968808,8.977993687968808,11.378560144346242
4.2843770202188712,2.2502557245823792,12.877131261309484,12.877131261309484,13.81012489530766
4.57708646524606,3.31819137464477,15.258549933760846,15.258549933760846,16.385639875062414
2.2944031005252664,4.2372648840466896,13.059302751579818,13.059302751579818,15.173901976039068
1.6668095055917364,0.90215166833618384,8.7727156266201424,8.7727156266201424,12.858584739552536
1.449538107300456,-1.7392502958958436,3.5899737001921864,3.5899737001921864,6.8897466296272264
1.8789807046000536,-4.5163679671648808,2.3768812214684308,2.3768812214684308,7.7703529844840752
1.7137932569709042,-0.27171365592677164,4.1341046030581152,4.1341046030581152,5.2481931760645792
1.8653209495657168,2.3816980725360188,6.5490887202401,6.5490887202401,5.7949884325447384
0.63223907616329656,6.9798897356147416,7.8237358770212736,7.8237358770212736,3.9131589982938408
1.5851250097241074,4.534014678176656,6.2723338510531088,6.2723338510531088,2.5733956653930196
1.4442026636320604,3.512903356024784,5.9548345702067344,5.9548345702067344,3.751908779112172
1.7994941070287942,1.8489038721639776,5.4253122174952248,5.4253122174952248,4.4782804126868952
1.7512927372483246,2.5707472085427912,5.34334122564246,5.34334122564246,3.3279761639740828
-1.216068485283746,-0.12534951207483802,-1.0826743142844944,-1.0826743142844944,0.45481261011076032
-2.4657120380375192,-1.349790870031934,-6.158410876260284,-6.158410876260284,-5.3607113713976288
0.339365839746558,-0.046338015300878888,-1.034465759228789,-1.034465759228789,-2.6781561749993756
-1.363830092312926,-1.1902298627429768,-4.6087271782432256,-4.6087271782432256,-4.7044493777461344
-0.80220469175095536,0.77714583682382688,-0.23032452084611312,-0.23032452084611312,-0.021958413426055756
-1.1988387148634016,0.58973300551526888,-1.3090513138248254,-1.3090513138248254,-1.1050247061957506
-2.0593980414645676,-1.7200105130237806,-6.4450999706409096,-6.4450999706409096,-6.191388088817012
-1.393803572495171,-1.8096386179182292,-5.1595048771230696,-5.1595048771230696,-4.816944682378452
-0.7411598211512272,-4.3879564373072544,-5.7889223069300904,-5.7889223069300904,-3.5135903155968448
-0.30233247662302136,-6.8982127279245192,-6.0178674905220744,-6.0178674905220744,-1.0837509359113268
0.07856074908713712,-3.3907259362373468,-5.028802089795576,-5.028802089795576,-5.1286367734094048
0.25134180291473228,-2.7482116738533852,-2.6709335311302836,-2.6709335311302836,-1.7222331573099534
2.07047631361852,-4.9051920257823808,-1.859073102749434,-1.859073102749434,-0.50131079406233512
2.5023200649971832,-5.4437031610921256,0.48078348160678704,0.48078348160678704,4.1224815748573968
1.72499435972935,-4.7947796667667632,0.7492081068525152,0.7492081068525152,5.2405969943964744
1.6716920733296072,-1.9413728042247064,2.5788576876176004,2.5788576876176004,4.7263904349130456
0.10353417358002948,0.23322363706266592,2.3276904593945728,2.3276904593945728,4.098477116035088
-0.2636436155414288,2.310013266348668,2.0793841059147172,2.0793841059147172,1.2210355433892892
0.34812432406517792,-1.7604796171477908,-0.11298351556690988,-0.11298351556690988,1.7185037464575106
3.7701258707019496,-3.0035802207001468,6.4276841890202176,6.4276841890202176,9.8204869676867568
4.2747302787443112,-0.70848626642937984,11.302283152375606,11.302283152375606,15.11783514690666
5.2203125672706608,1.3990482568533878,13.773675803216458,13.773675803216458,15.008154086611512
5.155668899566716,1.3826674827567592,14.32005327183711,14.32005327183711,16.25476752040565
4.2184949467381976,-1.6265485249749892,8.8395857031495216,8.8395857031495216,11.682004300285132
4.260877671519348,-5.3663556901097128,6.2148445865339232,6.2148445865339232,11.957467365193718
5.8489161780475168,-2.3246496089859988,12.04780002996134,12.04780002996134,15.884742117306646
4.9469935425766688,-0.1121648057408866,10.894533678462112,10.894533678462112,12.063327480382216
4.7977611149471832,-2.114732394187104,9.2645357734091824,9.2645357734091824,12.105647908204654
2.9878486063707116,-0.44945734702943416,9.135529924981792,9.135529924981792,12.969548657766314
1.2424965064656592,1.001449432994211,6.2838916163416768,6.2838916163416768,8.5806160702607184
1.059646379158603,-1.6039781600285386,2.6452127718682112,2.6452127718682112,5.577100025462024
2.1903122848390072,-1.5929427745816688,3.6227959768706688,3.6227959768706688,5.2543815459358264
0.26807018668430672,-0.50878630172690768,1.4839212077834702,1.4839212077834702,3.1948814947886888
0.062649698948286928,-0.75918293489988672,-1.2558695251071804,-1.2558695251071804,-1.4982640457611046
1.9884871604403872,1.4921359858200006,5.1617142002781744,5.1617142002781744,4.1082501009455744
1.7305980364792636,-1.5698767501855954,2.9464492593548572,2.9464492593548572,4.78651757102958
2.9374697566076292,-1.8982341218392868,6.9629139997339784,6.9629139997339784,10.89823966901163
1.8164857065567896,-4.4537151268755152,2.9092944233146724,2.9092944233146724,8.8661901238290384
2.077173005182454,-0.83819488296780208,4.4065916756304128,4.4065916756304128,5.9161296653476192
4.413321675769332,3.7352317050594896,12.722214066650462,12.722214066650462,11.014937224173028
3.1540480565891552,6.4241474770432968,13.453082830102882,13.453082830102882,10.961848331462512
2.3670239232960384,3.8443717241403144,9.6909652432622688,9.6909652432622688,8.8813250537219888
2.0410377081109012,4.5970959613773064,9.263907716503736,9.263907716503736,7.5500960747197104
2.8482055022156228,2.7492772507210272,8.5812981328691936,8.5812981328691936,7.3422693852255984
3.3838357142793324,0.4786322438891528,7.7849023430342768,7.7849023430342768,8.0841848916761584
3.9333139498475504,-3.045607607889202,8.2060871536697776,8.2060871536697776,13.113957819478256
4.8228122031421032,-1.2135546997769602,12.130080655486982,12.130080655486982,16.4348689543552
5.1570966208250312,0.073587176230489488,13.389411500598304,13.389411500598304,16.354248995200812
4.0612859853618832,2.0752377153394864,13.69125490164426,13.69125490164426,16.147081259555528
1.6009756654370034,2.5502980214143232,8.5600407583071072,8.5600407583071072,10.092683153618724
2.5770231300114616,3.8086637204105792,10.61519879613207,10.61519879613207,10.363355751625348
2.90595682353764,1.7077216104075566,9.1583129539750432,9.1583129539750432,9.9431298452634704
3.5952844516983804,-1.4027728570824018,9.0660012234460976,9.0660012234460976,13.045592829119038
4.2175578678060024,-2.5589324210963428,9.6330600832332256,9.6330600832332256,14.669403062498958
4.7322755073074248,1.105239634951293,12.459964000535474,12.459964000535474,13.797517534029158
6.3761686867936888,-2.0579323031212324,14.316168993477556,14.316168993477556,18.96689906804958
6.8486782528464456,-0.15896974342101088,18.074268951487276,18.074268951487276,22.68963601241318
5.4428562482422816,-3.797660166999556,12.60968184252415,12.60968184252415,20.030141439063068
4.2853715237502888,-1.6200448866473756,13.1550636983153,13.1550636983153,20.169451679101088
3.8767065378060312,0.52042272021037936,12.609068488591786,12.609068488591786,16.684089821255942
1.9212282237746524,0.37587605400627512,7.7578590174205616,7.7578590174205616,11.109447506282406
5.0307605036811008,-2.7637946249138932,11.180669212752648,11.180669212752648,16.44550935551393
3.6051386687160544,-2.25254505810438,8.1158680856845168,8.1158680856845168,12.400276421093494
3.2450908063373988,-1.294350060612179,8.1416055604813136,8.1416055604813136,11.7345545992061
3.8139689946839792,-3.771964050492924,7.5314969233720352,7.5314969233720352,13.093001933115496
4.1309354844061392,-1.0726752986496476,10.11405183188318,10.11405183188318,13.575245642928554
2.0871703582778744,1.8793253146289492,7.809437467813712,7.809437467813712,8.6255462471282496
2.7673495935235556,2.011176354264982,8.4100861397822544,8.4100861397822544,8.2687085611199264
2.2029261901119576,3.8055558045628528,7.9997853347118496,7.9997853347118496,5.885384582355508
2.5297792473001392,2.2909968388831736,8.8182484598016928,8.8182484598016928,9.1404431666783472
4.5975790099721648,-0.5069358488823392,11.05505178179936,11.05505178179936,13.675349316977898
3.253997564267742,0.62820387456765592,9.3356992569084944,9.3356992569084944,11.221097573430022
3.6184660814240768,-0.75578342239325472,8.9768322756996464,8.9768322756996464,11.85040752214102
2.175832374647716,-5.9939101113069088,2.6673644322158456,2.6673644322158456,9.9739292820966224
3.3108769651419788,-7.4216719597363504,3.0534136170389536,3.0534136170389536,10.617581243398474
3.3103706308610864,-8.339919484668336,3.7037835235475456,3.7037835235475456,13.296705012375422
4.0706492715052424,-6.3216424512153272,6.2567804624370032,6.2567804624370032,13.854726058686512
6.705330165409088,-2.653992279051742,15.071335357162936,15.071335357162936,20.712998802085308
5.3247269866184312,0.8500652165507112,14.971815219361662,14.971815219361662,18.019078640660396
5.7155437293840416,0.56035639440978312,14.840524125582294,14.840524125582294,17.40942620078183
4.8551447967341088,1.9989450285646944,13.55761168689955,13.55761168689955,14.406516237483842
2.688536546262866,4.6833436176716264,11.376739545259766,11.376739545259766,10.351390571486362
1.9318228785227388,5.286723683494152,9.4644764942994208,9.4644764942994208,7.1352217063121352
2.4699350182083636,-0.60469035521840552,5.7298244288821432,5.7298244288821432,7.4268143541751664
1.2178224376871882,-2.7801676571175156,2.2602462452572024,2.2602462452572024,6.2550991008163016
-1.0232105170691604,-1.8535824802113548,-1.554319774943672,-1.554319774943672,1.7181552045680098
-1.3686475430038136,-2.2413025517442956,-4.5960761316921984,-4.5960761316921984,-3.0929033497603264
-1.2416081604074868,3.1740899320843808,-1.8941781018333472,-1.8941781018333472,-6.0662747809782912
-2.027833229768568,-1.0369969156961556,-6.5701156505962432,-6.5701156505962432,-7.5290694681111168
-2.3780958798916484,-1.6688856480340006,-7.3952308234815648,-7.3952308234815648,-7.5309414151288336
-1.6402142139042168,-3.9988536555976352,-8.3013466306103424,-8.3013466306103424,-7.3239843500158
-2.9053441980135836,-1.7311882188503014,-8.3939432347818112,-8.3939432347818112,-8.3804157452610064
-4.7556529440087872,2.5322558053038376,-10.312688119608714,-10.312688119608714,-14.912454059155608
-4.9129437012399048,1.2976973052681962,-12.224472964662666,-12.224472964662666,-16.569604484747816
-3.4077400994438984,0.22991655971983128,-9.18092957664548,-9.18092957664548,-11.891253793982912
-3.5358230987926656,0.57045848027167976,-9.2305726076257424,-9.2305726076257424,-12.245186738073674
-2.3239725081475964,1.391878915616908,-4.8113308984087128,-4.8113308984087128,-7.0625351539475936
-1.8168623331520784,-0.51724412598490256,-5.4089985807040704,-5.4089985807040704,-6.4084063061266304
-2.426823703994584,0.034543989510343544,-5.4860838513286312,-5.4860838513286312,-6.1703362789336112
-1.716109452307739,-2.3887584251029764,-7.746039774946016,-7.746039774946016,-8.4767230076220896
-1.6768264038173482,-3.1801504583159452,-7.808926761204224,-7.808926761204224,-7.4939750272998368
-2.3472490658466652,0.52065832943875704,-7.1681403397096768,-7.1681403397096768,-10.42277004188416
-2.4988779265326736,-1.6602300607685066,-7.335627798873528,-7.335627798873528,-7.183154653528948
-1.9448558325530896,-1.0663824298109164,-6.6033235016934032,-6.6033235016934032,-7.7173616935642512
-2.7322986569431336,1.877258991583938,-8.1356789931716304,-8.1356789931716304,-13.622649159832904
-4.5463507418498336,2.6300550156552188,-10.036345670190774,-10.036345670190774,-14.92507238016471
-1.5214589458791826,1.2224813880784664,-3.645723224249888,-3.645723224249888,-6.0822506388591096
-2.4183732550458124,0.47702254438200584,-5.8636315916047704,-5.8636315916047704,-7.6060504896909264
-3.8897251832353168,-2.3484371726389444,-10.33689488553977,-10.33689488553977,-9.3716836456504928
-3.229726667184276,0.51987577028799328,-7.9127615934720496,-7.9127615934720496,-10.145883508007538
-1.4806993249016192,2.7224353685810052,-2.3932374739441144,-2.3932374739441144,-5.9087293509564984
-3.1465853973400648,2.747750382387384,-4.1420190181315688,-4.1420190181315688,-6.112492815164084
-0.54619139274673192,-2.739599681542834,-3.4719186652583076,-3.4719186652583076,-1.7420550227089014
1.6712071545969682,1.432266219586338,4.1964870929929008,4.1964870929929008,2.9021605474123584
1.4288574258041602,3.3503027496871152,4.7601105100499872,4.7601105100499872,1.6370520439609822
